{"learner":{"attributes":{"scikit_learn":"{\"_estimator_type\": \"classifier\"}"},"feature_names":[],"feature_types":[],"gradient_booster":{"model":{"gbtree_model_param":{"num_parallel_tree":"1","num_trees":"10"},"iteration_indptr":[0,1,2,3,4,5,6,7,8,9,10],"tree_info":[0,0,0,0,0,0,0,0,0,0],"trees":[{"base_weights":[7.892281E-3,1.7387003E-1,-1.558687E0,3.4434435E-1,-8.0058855E-1,-1.6325531E0,9.363687E-2,2.0271982E-1,1.407134E0,-9.3779844E-1,1.870919E-1,-1.7088997E0,5.6327734E-2,2.9672393E-1,-1.1780998E0,1.5645094E0,-1.8630312E-1,-1.099313E0,1.0875305E-1,-1.7689224E0,3.1414516E-2,3.776592E-1,-1.1728041E0,-1.3543222E0,7.671128E-2,1.6423664E0,-2.5107147E-2,-1.1813618E0,1.2762049E-1,5.840439E-1,-1.778348E-1,-1.8324553E0,3.1414516E-2,4.5684987E-1,-8.3841354E-1,-1.5136157E0,5.742159E-1,-1.5098298E0,2.5802068E-2,1.7457414E0,1.3619375E-1,-1.2654104E0,9.369758E-2,1.0802267E0,-1.5525255E-1,-1.8980432E0,-4.630278E-2,5.198404E-1,-8.3275014E-1,-1.1267649E0,1.7852971E-1,-1.6945134E0,3.1414516E-2,-3.080784E-2,1.5585923E-1,-1.6485059E0,3.1414516E-2,1.8158827E0,3.2760503E-4,-5.5672523E-2,9.363687E-2,-1.326231E0,9.363687E-2,2.0044263E-1,-3.080784E-2,-2.7233514E-1,-5.5672523E-2,5.79386E-1,-8.297612E-1,-1.1268778E0,6.499356E-2,-1.3088484E0,9.363687E-2,-2.5515455E-1,-7.601636E-2,-1.7463499E0,-3.080784E-2,1.8649098E0,3.1414516E-2,-1.3901234E0,9.363687E-2,6.324585E-1,-7.5837874E-1,-1.2159969E0,1.2762049E-1,-1.3811201E0,2.5802068E-2,-1.5882607E0,-3.1271142E-1,-2.6018223E-1,-5.5672523E-2,2.6844496E-1,3.1414516E-2,-1.4855502E0,2.8850082E-1,9.463095E-2,-1.3953245E-1,-1.7452282E-1,8.039022E-2,-2.136366E-1,2.5802068E-2,-2.27023E-1,-2.5107147E-2,-2.4132265E-1,-3.080784E-2,-1.0731459E-1,5.6327734E-2,-2.1758842E-1,2.5802068E-2,-3.080784E-2,9.363687E-2],"categories":[],"categories_nodes":[],"categories_segments":[],"categories_sizes":[],"default_left":[0,0,0,0,0,0,0,0,0,0,0,0,0,0,0,0,0,0,0,0,0,0,0,0,0,0,0,0,0,0,0,0,0,0,0,0,0,0,0,0,0,0,0,0,0,0,0,0,0,0,0,0,0,0,0,0,0,0,0,0,0,0,0,0,0,0,0,0,0,0,0,0,0,0,0,0,0,0,0,0,0,0,0,0,0,0,0,0,0,0,0,0,0,0,0,0,0,0,0,0,0,0,0,0,0,0,0,0,0,0,0],"id":0,"left_children":[1,3,5,7,9,11,-1,13,15,17,-1,19,-1,21,23,25,-1,27,29,31,-1,33,35,37,-1,39,-1,41,-1,43,-1,45,-1,47,49,51,53,55,-1,57,59,61,-1,63,-1,65,-1,67,69,71,-1,73,-1,-1,-1,75,-1,77,-1,-1,-1,79,-1,-1,-1,-1,-1,81,83,85,-1,87,-1,-1,-1,89,-1,91,-1,93,-1,95,97,99,-1,101,-1,103,105,-1,-1,-1,-1,107,109,-1,-1,-1,-1,-1,-1,-1,-1,-1,-1,-1,-1,-1,-1,-1,-1],"loss_changes":[1.3027916E2,7.552782E1,8.989723E0,5.785174E1,2.1118282E1,7.9504776E0,0E0,4.474192E1,2.1578896E1,1.09799E1,0E0,5.6477814E0,0E0,3.8621437E1,7.4337215E0,6.1665955E0,0E0,1.0275101E1,6.968415E0,5.9833527E0,0E0,2.9754917E1,1.0990982E1,5.1234093E0,0E0,6.2238007E0,0E0,9.246185E0,0E0,7.708145E0,0E0,3.5828705E0,0E0,2.374656E1,1.3016691E1,4.9390335E0,1.7435526E0,4.819046E0,0E0,4.734253E0,1.3322898E0,7.0043945E0,0E0,3.2859263E0,0E0,2.1127777E0,0E0,2.2520187E1,5.768482E0,6.515257E0,0E0,9.63707E-1,0E0,0E0,0E0,2.0266495E0,0E0,2.4880066E0,0E0,0E0,0E0,7.3988037E0,0E0,0E0,0E0,0E0,0E0,1.916993E1,9.179237E0,4.088133E0,0E0,3.9566422E0,0E0,0E0,0E0,1.6798515E0,0E0,2.6735077E0,0E0,8.357765E0,0E0,1.8646439E1,7.546983E0,4.730365E0,0E0,2.5268917E0,0E0,1.891264E0,1.8498063E0,0E0,0E0,0E0,0E0,5.6744843E0,8.2415426E-1,0E0,0E0,0E0,0E0,0E0,0E0,0E0,0E0,0E0,0E0,0E0,0E0,0E0,0E0,0E0,0E0],"parents":[2147483647,0,0,1,1,2,2,3,3,4,4,5,5,7,7,8,8,9,9,11,11,13,13,14,14,15,15,17,17,18,18,19,19,21,21,22,22,23,23,25,25,27,27,29,29,31,31,33,33,34,34,35,35,36,36,37,37,39,39,40,40,41,41,43,43,45,45,47,47,48,48,49,49,51,51,55,55,57,57,61,61,67,67,68,68,69,69,71,71,75,75,77,77,79,79,81,81,82,82,83,83,85,85,87,87,88,88,93,93,94,94],"right_children":[2,4,6,8,10,12,-1,14,16,18,-1,20,-1,22,24,26,-1,28,30,32,-1,34,36,38,-1,40,-1,42,-1,44,-1,46,-1,48,50,52,54,56,-1,58,60,62,-1,64,-1,66,-1,68,70,72,-1,74,-1,-1,-1,76,-1,78,-1,-1,-1,80,-1,-1,-1,-1,-1,82,84,86,-1,88,-1,-1,-1,90,-1,92,-1,94,-1,96,98,100,-1,102,-1,104,106,-1,-1,-1,-1,108,110,-1,-1,-1,-1,-1,-1,-1,-1,-1,-1,-1,-1,-1,-1,-1,-1],"split_conditions":[3.8055838E-3,3.4803401E-3,3.4021917E-3,2.3654918E-3,6.465853E-3,2.865275E-3,9.363687E-2,3.6163176E-3,5.8899894E-3,4.3862024E-3,1.870919E-1,6.45804E-3,5.6327734E-2,4.1909562E-3,3.4213606E-3,3.3466874E-3,-1.8630312E-1,1.1869018E-2,6.12151E-3,1.1168548E-2,3.1414516E-2,2.4621116E-3,4.274922E-3,4.4007767E-3,7.671128E-2,9.954153E-3,-2.5107147E-2,9.671397E-3,1.2762049E-1,8.770174E-3,-1.778348E-1,4.9365726E-3,3.1414516E-2,1.6984208E-3,5.5041052E-3,8.923721E-3,3.6218988E-3,4.5846766E-3,2.5802068E-2,3.3327413E-3,1.431979E-3,1.3499263E-2,9.369758E-2,2.2468325E-3,-1.5525255E-1,2.4637098E-3,-4.630278E-2,3.4572165E-3,2.648207E-3,2.0657384E-3,1.7852971E-1,4.990304E-3,3.1414516E-2,-3.080784E-2,1.5585923E-1,1.0881051E-2,3.1414516E-2,8.320556E-3,3.2760503E-4,-5.5672523E-2,9.363687E-2,6.4762444E-3,9.363687E-2,2.0044263E-1,-3.080784E-2,-2.7233514E-1,-5.5672523E-2,4.7024945E-3,4.8892153E-3,3.4173382E-3,6.499356E-2,3.009812E-3,9.363687E-2,-2.5515455E-1,-7.601636E-2,3.3466874E-3,-3.080784E-2,2.973782E-3,3.1414516E-2,8.493534E-3,9.363687E-2,5.164829E-3,5.082212E-3,2.1243345E-3,1.2762049E-1,3.635492E-3,2.5802068E-2,2.9913245E-3,2.0769553E-3,-2.6018223E-1,-5.5672523E-2,2.6844496E-1,3.1414516E-2,5.1095365E-3,6.982229E-3,9.463095E-2,-1.3953245E-1,-1.7452282E-1,8.039022E-2,-2.136366E-1,2.5802068E-2,-2.27023E-1,-2.5107147E-2,-2.4132265E-1,-3.080784E-2,-1.0731459E-1,5.6327734E-2,-2.1758842E-1,2.5802068E-2,-3.080784E-2,9.363687E-2],"split_indices":[3443,2693,2747,1708,1504,2266,0,2204,1640,4229,0,3649,0,4263,1154,952,0,2033,2169,4229,0,19,1173,846,0,1477,0,846,0,3411,0,3432,0,4490,2879,4889,2732,3587,0,2046,2732,339,0,145,0,216,0,2356,249,1641,0,1992,0,0,0,1348,0,50,0,0,0,1290,0,0,0,0,0,1615,339,4630,0,2817,0,0,0,952,0,2044,0,4417,0,1685,2732,115,0,3411,0,1756,3411,0,0,0,0,1708,45,0,0,0,0,0,0,0,0,0,0,0,0,0,0,0,0],"split_type":[0,0,0,0,0,0,0,0,0,0,0,0,0,0,0,0,0,0,0,0,0,0,0,0,0,0,0,0,0,0,0,0,0,0,0,0,0,0,0,0,0,0,0,0,0,0,0,0,0,0,0,0,0,0,0,0,0,0,0,0,0,0,0,0,0,0,0,0,0,0,0,0,0,0,0,0,0,0,0,0,0,0,0,0,0,0,0,0,0,0,0,0,0,0,0,0,0,0,0,0,0,0,0,0,0,0,0,0,0,0,0],"sum_hessian":[4.989981E2,4.519983E2,4.699982E1,3.8524854E2,6.674975E1,4.5749825E1,1.2499952E0,3.409987E2,4.4249832E1,6.324976E1,3.4999866E0,4.4249832E1,1.4999943E0,3.1999878E2,2.099992E1,4.224984E1,1.9999924E0,5.474979E1,8.499968E0,4.2999836E1,1.2499952E0,3.0399884E2,1.5999939E1,1.9249928E1,1.7499933E0,4.0499847E1,1.7499933E0,5.2999798E1,1.7499933E0,6.7499743E0,1.7499933E0,4.174984E1,1.2499952E0,2.859989E2,1.7999931E1,1.34999485E1,2.4999905E0,1.7499933E1,1.7499933E0,3.7749855E1,2.7499895E0,5.0999805E1,1.9999924E0,5.499979E0,1.2499952E0,3.9749847E1,1.9999924E0,2.7324896E2,1.2749951E1,1.6249939E1,1.7499933E0,1.2249953E1,1.2499952E0,1.2499952E0,1.2499952E0,1.6249939E1,1.2499952E0,3.6249863E1,1.4999943E0,1.4999943E0,1.2499952E0,4.974981E1,1.2499952E0,4.249984E0,1.2499952E0,3.8249855E1,1.4999943E0,2.62249E2,1.0999958E1,1.049996E1,2.2499914E0,1.4999943E1,1.2499952E0,1.049996E1,1.7499933E0,1.4999943E1,1.2499952E0,3.4999866E1,1.2499952E0,4.8499817E1,1.2499952E0,2.5274904E2,9.499964E0,9.249965E0,1.7499933E0,8.749967E0,1.7499933E0,1.1249957E1,3.7499857E0,1.34999485E1,1.4999943E0,3.374987E1,1.2499952E0,4.5999825E1,2.4999905E0,2.4674905E2,5.999977E0,6.9999733E0,2.4999905E0,7.4999714E0,1.7499933E0,6.9999733E0,1.7499933E0,9.999962E0,1.2499952E0,2.2499914E0,1.4999943E0,4.4249832E1,1.7499933E0,1.2499952E0,1.2499952E0],"tree_param":{"num_deleted":"0","num_feature":"5000","num_nodes":"111","size_leaf_vector":"1"}},{"base_weights":[-6.4324844E-3,1.5325601E-1,-1.316662E0,2.6882368E-1,-1.3007336E0,-1.4008489E0,2.4436724E-1,1.23084314E-1,1.2437603E0,-1.5276041E0,-9.779957E-2,-1.464121E0,6.71218E-2,-1.400797E-1,1.7714608E-1,2.2269155E-1,-1.1103122E0,1.3212256E0,-1.3149796E-1,-1.6488624E0,9.282464E-3,8.045272E-1,-1.5379612E-1,-1.5140604E0,4.4557344E-2,2.791464E-1,-1.4820877E0,-1.253336E0,9.371648E-2,1.3961257E0,-5.919356E-2,-1.7529246E0,-1.4407961E-2,1.8436438E-1,-2.4676688E-2,-1.596474E0,-3.0339378E-1,3.6634606E-1,-7.968604E-1,-1.6218656E0,-2.8158398E-2,-1.3848883E0,1.0873567E-1,1.4450458E0,-4.6970014E-2,-2.5496945E-1,-3.5511166E-2,-1.6554726E0,-3.8947824E-3,1.1812865E-1,-1.6309552E-1,4.5405418E-1,-7.1485156E-1,-9.576085E-1,1.23031445E-1,-2.5073302E-1,-3.3975776E-2,-1.5492018E0,4.7663644E-2,1.4958358E0,-4.4994835E-2,-1.6979786E0,-9.864984E-3,3.414033E-1,1.204053E0,-9.4636613E-1,5.7029617E-1,-1.1614887E0,5.5136794E-1,-1.7144704E0,7.047671E-2,1.5477291E0,-4.065462E-2,-1.7392862E0,-7.108967E-1,3.9862847E-1,-1.2496812E0,1.5502638E0,4.594274E-1,-1.181228E0,5.300587E-1,1.6392417E-1,-2.5739087E-2,-1.3068568E0,9.005263E-2,1.5464596E-1,-3.457664E-2,-2.4598534E-1,-7.8548394E-2,1.6223676E0,1.16365045E-1,-2.4671765E-1,-7.6115616E-2,-1.55603355E-2,-1.3886759E-1,4.4174217E-2,1.9734265E-1,-2.2334246E-1,1.6081175E-2,2.371849E-1,-9.196541E-2,1.0442397E-1,-1.2681346E-1,-1.8969348E-1,6.1642136E-2,1.5369344E-1,-3.8206745E-2,-2.1396935E-1,-5.76143E-3,2.3508085E-1,3.418929E-2,1.3640961E-1,-1.1089308E-1],"categories":[],"categories_nodes":[],"categories_segments":[],"categories_sizes":[],"default_left":[0,0,0,0,0,0,0,0,0,0,0,0,0,0,0,0,0,0,0,0,0,0,0,0,0,0,0,0,0,0,0,0,0,0,0,0,0,0,0,0,0,0,0,0,0,0,0,0,0,0,0,0,0,0,0,0,0,0,0,0,0,0,0,0,0,0,0,0,0,0,0,0,0,0,0,0,0,0,0,0,0,0,0,0,0,0,0,0,0,0,0,0,0,0,0,0,0,0,0,0,0,0,0,0,0,0,0,0,0,0,0,0,0],"id":1,"left_children":[1,3,5,7,9,11,13,15,17,19,21,23,-1,-1,-1,25,27,29,-1,31,-1,33,-1,35,-1,37,39,41,-1,43,-1,45,-1,-1,-1,47,49,51,53,55,-1,57,-1,59,-1,-1,-1,61,-1,-1,-1,63,65,67,-1,-1,-1,69,-1,71,-1,73,-1,75,77,79,81,83,85,87,-1,89,-1,91,93,95,97,99,101,103,105,-1,-1,107,-1,-1,-1,-1,-1,109,111,-1,-1,-1,-1,-1,-1,-1,-1,-1,-1,-1,-1,-1,-1,-1,-1,-1,-1,-1,-1,-1,-1],"loss_changes":[1.0767658E2,7.743758E1,7.6896896E0,6.034926E1,9.116009E0,7.0306854E0,5.98455E0,4.5893806E1,1.0586861E1,5.616684E0,6.7130113E0,5.084732E0,0E0,0E0,0E0,3.358071E1,7.948471E0,7.6164017E0,0E0,4.0858536E0,0E0,2.2280514E0,0E0,4.551819E0,0E0,3.166895E1,1.6800251E0,8.072704E0,0E0,4.873268E0,0E0,2.0754242E0,0E0,0E0,0E0,4.305908E0,5.382844E0,2.9724468E1,7.678974E0,1.888237E0,0E0,7.6051674E0,0E0,5.017746E0,0E0,0E0,0E0,2.9324646E0,0E0,0E0,0E0,2.3868828E1,7.576659E0,7.913471E0,0E0,0E0,0E0,8.656948E0,0E0,5.0223007E0,0E0,5.606842E-1,0E0,2.337402E1,8.860279E0,7.7058105E0,2.133113E0,6.388939E0,1.8151767E0,6.931305E-2,0E0,4.9497986E0,0E0,1.8536377E-1,4.7317922E-1,1.9993038E1,4.411028E0,9.030354E0,5.8403316E0,5.645956E0,1.8916979E0,0E0,0E0,5.5165825E0,0E0,0E0,0E0,0E0,0E0,3.1612244E0,3.4694932E0,0E0,0E0,0E0,0E0,0E0,0E0,0E0,0E0,0E0,0E0,0E0,0E0,0E0,0E0,0E0,0E0,0E0,0E0,0E0,0E0,0E0,0E0],"parents":[2147483647,0,0,1,1,2,2,3,3,4,4,5,5,6,6,7,7,8,8,9,9,10,10,11,11,15,15,16,16,17,17,19,19,21,21,23,23,25,25,26,26,27,27,29,29,31,31,35,35,36,36,37,37,38,38,39,39,41,41,43,43,47,47,51,51,52,52,53,53,57,57,59,59,61,61,63,63,64,64,65,65,66,66,67,67,68,68,69,69,71,71,73,73,74,74,75,75,76,76,77,77,78,78,79,79,80,80,83,83,89,89,90,90],"right_children":[2,4,6,8,10,12,14,16,18,20,22,24,-1,-1,-1,26,28,30,-1,32,-1,34,-1,36,-1,38,40,42,-1,44,-1,46,-1,-1,-1,48,50,52,54,56,-1,58,-1,60,-1,-1,-1,62,-1,-1,-1,64,66,68,-1,-1,-1,70,-1,72,-1,74,-1,76,78,80,82,84,86,88,-1,90,-1,92,94,96,98,100,102,104,106,-1,-1,108,-1,-1,-1,-1,-1,110,112,-1,-1,-1,-1,-1,-1,-1,-1,-1,-1,-1,-1,-1,-1,-1,-1,-1,-1,-1,-1,-1,-1],"split_conditions":[3.2137472E-3,2.4621116E-3,3.1719704E-3,2.7566617E-3,1.9700518E-3,2.8001415E-3,1.5186459E-3,3.7176595E-3,4.5945914E-3,8.834008E-3,3.0213653E-3,9.370689E-3,6.71218E-2,-1.400797E-1,1.7714608E-1,8.994851E-3,2.8775746E-3,2.6456194E-3,-1.3149796E-1,3.111726E-3,9.282464E-3,4.5861495E-3,-1.5379612E-1,7.012415E-3,4.4557344E-2,5.039043E-3,5.956633E-3,5.514016E-3,9.371648E-2,1.4861418E-2,-5.919356E-2,3.8064073E-3,-1.4407961E-2,1.8436438E-1,-2.4676688E-2,2.8626581E-3,8.163665E-3,7.00296E-3,5.8695055E-3,7.838006E-3,-2.8158398E-2,5.3391024E-3,1.0873567E-1,8.4997555E-3,-4.6970014E-2,-2.5496945E-1,-3.5511166E-2,3.6310956E-3,-3.8947824E-3,1.1812865E-1,-1.6309552E-1,4.646041E-3,5.6432313E-3,7.832431E-3,1.23031445E-1,-2.5073302E-1,-3.3975776E-2,1.0474164E-2,4.7663644E-2,1.1686687E-2,-4.4994835E-2,1.0418563E-2,-9.864984E-3,2.8642206E-3,3.7076515E-3,1.0691848E-2,4.3331943E-3,7.087143E-3,1.8774001E-3,5.763156E-3,7.047671E-2,4.794435E-3,-4.065462E-2,7.300767E-3,1.4453051E-3,3.0479485E-3,2.1070002E-3,5.326191E-3,6.6109854E-3,7.725907E-3,1.431979E-3,1.6392417E-1,-2.5739087E-2,7.0637576E-3,9.005263E-2,1.5464596E-1,-3.457664E-2,-2.4598534E-1,-7.8548394E-2,2.1964456E-3,1.5060427E-3,-2.4671765E-1,-7.6115616E-2,-1.55603355E-2,-1.3886759E-1,4.4174217E-2,1.9734265E-1,-2.2334246E-1,1.6081175E-2,2.371849E-1,-9.196541E-2,1.0442397E-1,-1.2681346E-1,-1.8969348E-1,6.1642136E-2,1.5369344E-1,-3.8206745E-2,-2.1396935E-1,-5.76143E-3,2.3508085E-1,3.418929E-2,1.3640961E-1,-1.1089308E-1],"split_indices":[3443,19,2619,1708,2702,1941,2817,2204,3374,3400,2065,2827,0,0,0,1305,3208,3757,0,187,0,3313,0,4417,0,3052,2169,4005,0,573,0,603,0,0,0,336,4417,3590,651,3400,0,1348,0,3551,0,0,0,3364,0,0,0,4889,3272,993,0,0,0,339,0,1014,0,2906,0,452,4204,561,2732,2462,1378,13,0,3649,0,1251,4152,4809,561,4490,3479,4862,2732,0,0,4817,0,0,0,0,0,3052,4425,0,0,0,0,0,0,0,0,0,0,0,0,0,0,0,0,0,0,0,0,0,0],"split_type":[0,0,0,0,0,0,0,0,0,0,0,0,0,0,0,0,0,0,0,0,0,0,0,0,0,0,0,0,0,0,0,0,0,0,0,0,0,0,0,0,0,0,0,0,0,0,0,0,0,0,0,0,0,0,0,0,0,0,0,0,0,0,0,0,0,0,0,0,0,0,0,0,0,0,0,0,0,0,0,0,0,0,0,0,0,0,0,0,0,0,0,0,0,0,0,0,0,0,0,0,0,0,0,0,0,0,0,0,0,0,0,0,0],"sum_hessian":[5.1267163E2,4.5776328E2,5.4908363E1,4.2481293E2,3.295036E1,5.2196026E1,2.7123363E0,3.7054752E2,5.4265415E1,2.749497E1,5.4553866E0,5.0710926E1,1.4851011E0,1.2311163E0,1.48122E0,3.4361697E2,2.6930536E1,5.2787033E1,1.4783818E0,2.5519098E1,1.9758719E0,2.9718616E0,2.483525E0,4.9475258E1,1.235668E0,3.3341208E2,1.0204898E1,2.5201063E1,1.729473E0,5.0804646E1,1.982389E0,2.3784231E1,1.7348669E0,1.7269998E0,1.2448618E0,4.6023624E1,3.4516346E0,3.0902795E2,2.4384113E1,8.960942E0,1.243955E0,2.3965794E1,1.2352705E0,4.9569748E1,1.2348964E0,2.2542774E1,1.2414584E0,4.4302036E1,1.7215879E0,1.4893076E0,1.9623271E0,2.8637677E2,2.2651197E1,2.2640676E1,1.7434355E0,7.7163725E0,1.2445699E0,2.197508E1,1.9907134E0,4.833322E1,1.2365254E0,4.307558E1,1.2264545E0,2.5024484E2,3.613192E1,1.9416924E1,3.2342732E0,2.0148643E1,2.4920335E0,2.049003E1,1.4850489E0,4.7098442E1,1.2347813E0,4.0613914E1,2.461667E0,2.4228041E2,7.9644294E0,2.3925781E1,1.2206136E1,1.692459E1,2.4923346E0,1.4928179E0,1.7414553E0,1.890198E1,1.2466633E0,1.2453701E0,1.2466633E0,1.9256027E1,1.2340032E0,4.4637383E1,2.4610586E0,3.9382908E1,1.2310061E0,1.2306609E0,1.2310061E0,2.2509068E2,1.7189734E1,6.2199006E0,1.7445288E0,2.2679426E1,1.2463561E0,1.0464172E1,1.7419636E0,1.5435299E1,1.4892904E0,1.2449036E0,1.2474309E0,1.59102125E1,2.9917681E0,4.26613E1,1.9760817E0,1.2283826E0,1.232676E0],"tree_param":{"num_deleted":"0","num_feature":"5000","num_nodes":"113","size_leaf_vector":"1"}},{"base_weights":[-7.7031488E-3,1.8455279E-1,-9.315177E-1,2.9473618E-1,-1.1710825E0,-1.0158784E0,5.492122E-1,2.1534638E-1,1.4642113E0,-1.2875402E0,1.2998886E-1,-1.0734314E0,1.412927E-1,1.702313E-1,-9.575782E-2,2.741181E-1,-1.2176154E0,1.5782721E0,-4.751877E-2,-1.4079283E0,6.1719093E-2,-1.1506292E0,5.746932E-1,3.349317E-1,-1.017582E0,-1.5002238E0,4.8238914E-2,1.6631222E0,7.21323E-3,-1.5086846E0,6.312717E-2,-1.208917E0,7.435859E-2,1.6775973E-1,-4.8274383E-2,2.3277842E-1,1.0793847E0,-1.2770486E0,9.287799E-2,-1.7030001E0,2.2278825E-2,1.7489989E0,2.0490607E-2,-1.5738518E0,-1.1962217E-2,-1.27751E0,2.2745545E-1,3.2181048E-1,-6.2272644E-1,1.2478979E0,-2.063359E-1,-1.4696811E0,5.4245498E-2,-2.5592044E-1,-5.455809E-2,2.5240153E-1,7.006739E-2,-2.2600575E-1,-5.5579998E-2,-1.3357453E0,6.8564065E-2,1.6282007E-1,-1.00957476E-1,3.8284308E-1,-8.523234E-1,-9.064189E-1,4.9633557E-1,1.3957131E0,-1.06100366E-1,-1.7557167E-1,1.2644948E-1,-2.1504703E-1,-6.391818E-2,-1.3931342E0,3.543109E-2,4.395153E-1,-9.991661E-1,-1.1020515E0,7.004068E-2,-1.1588883E0,2.8176904E-1,-1.1357967E-1,1.0799356E0,1.4790999E0,-4.964513E-2,1.10210545E-1,-1.8565358E-1,-1.4414536E0,6.0756452E-2,6.7465395E-2,-1.459065E-1,-1.6846545E-1,3.5266694E-2,-1.9141081E-1,8.3065934E-2,-1.9515257E-1,5.3552937E-2,-7.20685E-2,1.6808827E-1,1.8703973E-1,2.7239593E-2,2.2428177E-1,6.831101E-3,-2.1316333E-1,-4.6327967E-2],"categories":[],"categories_nodes":[],"categories_segments":[],"categories_sizes":[],"default_left":[0,0,0,0,0,0,0,0,0,0,0,0,0,0,0,0,0,0,0,0,0,0,0,0,0,0,0,0,0,0,0,0,0,0,0,0,0,0,0,0,0,0,0,0,0,0,0,0,0,0,0,0,0,0,0,0,0,0,0,0,0,0,0,0,0,0,0,0,0,0,0,0,0,0,0,0,0,0,0,0,0,0,0,0,0,0,0,0,0,0,0,0,0,0,0,0,0,0,0,0,0,0,0,0,0],"id":2,"left_children":[1,3,5,7,9,11,13,15,17,19,-1,21,-1,-1,-1,23,25,27,-1,29,-1,31,33,35,37,39,-1,41,-1,43,-1,45,-1,-1,-1,47,49,51,-1,53,-1,55,-1,57,-1,59,61,63,65,67,69,71,-1,-1,-1,-1,-1,-1,-1,73,-1,-1,-1,75,77,79,81,83,85,-1,-1,-1,-1,87,-1,89,91,93,-1,95,97,-1,99,101,-1,-1,-1,103,-1,-1,-1,-1,-1,-1,-1,-1,-1,-1,-1,-1,-1,-1,-1,-1,-1],"loss_changes":[8.68033E1,6.0776154E1,1.1074379E1,3.4498005E1,8.680576E0,1.0407608E1,5.0964317E0,3.0003653E1,5.403908E0,6.742897E0,0E0,1.0620346E1,0E0,0E0,0E0,2.698885E1,6.72587E0,2.8204384E0,0E0,5.876667E0,0E0,8.004471E0,2.803832E0,2.4444344E1,7.6081047E0,4.3410797E0,0E0,2.5080528E0,0E0,2.3278847E0,0E0,7.472603E0,0E0,0E0,0E0,2.2047287E1,8.687397E0,4.984688E0,0E0,1.0711823E0,0E0,4.4227982E-1,0E0,5.656128E-1,0E0,7.829956E0,4.54042E0,1.8990282E1,9.141266E0,7.0612946E0,7.3716435E0,1.4259338E-1,0E0,0E0,0E0,0E0,0E0,0E0,0E0,6.531723E0,0E0,0E0,0E0,1.9884094E1,5.003171E0,6.9843693E0,5.594464E0,5.0800934E0,5.7619705E0,0E0,0E0,0E0,0E0,6.4134674E0,0E0,1.5521927E1,2.8790865E0,5.95312E0,0E0,7.236273E0,4.0535502E0,0E0,8.064804E-1,5.19355E0,0E0,0E0,0E0,5.2724E0,0E0,0E0,0E0,0E0,0E0,0E0,0E0,0E0,0E0,0E0,0E0,0E0,0E0,0E0,0E0,0E0,0E0],"parents":[2147483647,0,0,1,1,2,2,3,3,4,4,5,5,6,6,7,7,8,8,9,9,11,11,15,15,16,16,17,17,19,19,21,21,22,22,23,23,24,24,25,25,27,27,29,29,31,31,35,35,36,36,37,37,39,39,41,41,43,43,45,45,46,46,47,47,48,48,49,49,50,50,51,51,59,59,63,63,64,64,65,65,66,66,67,67,68,68,73,73,75,75,76,76,77,77,79,79,80,80,82,82,83,83,87,87],"right_children":[2,4,6,8,10,12,14,16,18,20,-1,22,-1,-1,-1,24,26,28,-1,30,-1,32,34,36,38,40,-1,42,-1,44,-1,46,-1,-1,-1,48,50,52,-1,54,-1,56,-1,58,-1,60,62,64,66,68,70,72,-1,-1,-1,-1,-1,-1,-1,74,-1,-1,-1,76,78,80,82,84,86,-1,-1,-1,-1,88,-1,90,92,94,-1,96,98,-1,100,102,-1,-1,-1,104,-1,-1,-1,-1,-1,-1,-1,-1,-1,-1,-1,-1,-1,-1,-1,-1,-1],"split_conditions":[1.9704432E-3,4.105449E-3,3.665974E-3,2.820687E-3,8.808609E-3,3.2381932E-3,5.733155E-3,3.5000173E-3,7.82841E-3,3.452833E-3,1.2998886E-1,3.899253E-3,1.412927E-1,1.702313E-1,-9.575782E-2,7.068435E-3,3.391769E-3,8.442497E-3,-4.751877E-2,5.817961E-3,6.1719093E-2,2.865275E-3,2.2120627E-3,2.2415216E-3,2.2392378E-3,3.515109E-3,4.8238914E-2,2.4439527E-3,7.21323E-3,5.7617114E-3,6.312717E-2,5.007837E-3,7.435859E-2,1.6775973E-1,-4.8274383E-2,2.274128E-3,5.7404456E-3,7.5861346E-3,9.287799E-2,3.7070957E-3,2.2278825E-2,8.574928E-3,2.0490607E-2,9.683184E-3,-1.1962217E-2,1.1318041E-2,1.7819233E-3,9.775237E-3,2.6075956E-3,2.9352591E-3,2.734666E-3,7.0322715E-3,5.4245498E-2,-2.5592044E-1,-5.455809E-2,2.5240153E-1,7.006739E-2,-2.2600575E-1,-5.5579998E-2,1.11332815E-2,6.8564065E-2,1.6282007E-1,-1.00957476E-1,4.7070473E-3,1.1231779E-2,3.7974075E-3,2.0634024E-3,1.2030511E-2,3.3950359E-3,-1.7557167E-1,1.2644948E-1,-2.1504703E-1,-6.391818E-2,4.323363E-3,3.543109E-2,1.2836169E-2,4.568948E-3,2.3265614E-3,7.004068E-2,9.486769E-3,1.7064716E-3,-1.1357967E-1,2.8433711E-3,5.0913696E-3,-4.964513E-2,1.10210545E-1,-1.8565358E-1,4.483646E-3,6.0756452E-2,6.7465395E-2,-1.459065E-1,-1.6846545E-1,3.5266694E-2,-1.9141081E-1,8.3065934E-2,-1.9515257E-1,5.3552937E-2,-7.20685E-2,1.6808827E-1,1.8703973E-1,2.7239593E-2,2.2428177E-1,6.831101E-3,-2.1316333E-1,-4.6327967E-2],"split_indices":[2693,3443,2515,2717,1544,2093,4425,3550,1183,4260,0,1781,0,0,0,2204,4862,1662,0,2708,0,2266,3823,1708,846,3135,0,4755,0,841,0,4260,0,0,0,2896,2043,446,0,1831,0,651,0,387,0,1100,52,2687,2003,2659,4417,1831,0,0,0,0,0,0,0,1992,0,0,0,4263,1641,2134,4843,2029,4843,0,0,0,0,982,0,4178,2659,1626,0,2392,484,0,1192,249,0,0,0,3238,0,0,0,0,0,0,0,0,0,0,0,0,0,0,0,0,0],"split_type":[0,0,0,0,0,0,0,0,0,0,0,0,0,0,0,0,0,0,0,0,0,0,0,0,0,0,0,0,0,0,0,0,0,0,0,0,0,0,0,0,0,0,0,0,0,0,0,0,0,0,0,0,0,0,0,0,0,0,0,0,0,0,0,0,0,0,0,0,0,0,0,0,0,0,0,0,0,0,0,0,0,0,0,0,0,0,0,0,0,0,0,0,0,0,0,0,0,0,0,0,0,0,0,0,0],"sum_hessian":[4.867651E2,4.035766E2,8.318849E1,3.739641E2,2.9612486E1,7.900152E1,4.1869736E0,3.5130026E2,2.2663868E1,2.8422716E1,1.1897694E0,7.727532E1,1.7261932E0,2.726754E0,1.4602196E0,3.3823648E2,1.3063777E1,2.1433378E1,1.2304891E0,2.6745234E1,1.6774833E0,7.4106064E1,3.1692567E0,3.2373563E2,1.4500863E1,1.1096083E1,1.967695E0,2.0220299E1,1.2130792E0,2.5548761E1,1.1964719E0,7.189542E1,2.2106528E0,1.7078536E0,1.461403E0,2.858273E2,3.790833E1,1.2770069E1,1.7307938E0,9.864343E0,1.2317395E0,1.8991892E1,1.2284071E0,2.4328964E1,1.2197958E0,6.8724144E1,3.171272E0,2.5945023E2,2.6377056E1,3.354161E1,4.366719E0,1.1550406E1,1.2196624E0,8.649178E0,1.2151653E0,1.7780712E1,1.2111806E0,2.3160677E1,1.1682873E0,6.6768135E1,1.9560053E0,1.4828026E0,1.6884695E0,2.472708E2,1.2179435E1,2.119416E1,5.182895E0,3.0212519E1,3.329093E0,2.178906E0,2.1878128E0,1.0355846E1,1.1945599E0,6.4559395E1,2.2087405E0,2.3818547E2,9.085326E0,1.0437618E1,1.7418158E0,1.7500307E1,3.6938539E0,1.478969E0,3.703926E0,2.898653E1,1.2259885E0,2.12664E0,1.2024528E0,6.3101692E1,1.4577026E0,2.3221823E2,5.967242E0,7.843528E0,1.241798E0,9.193289E0,1.2443299E0,1.5267712E1,2.2325962E0,2.214186E0,1.479668E0,2.4782107E0,1.2257154E0,2.6582155E1,2.404375E0,5.8459324E1,4.6423697E0],"tree_param":{"num_deleted":"0","num_feature":"5000","num_nodes":"105","size_leaf_vector":"1"}},{"base_weights":[-9.889263E-3,1.0704573E-1,-1.0853983E0,-1.700285E-2,9.9883527E-1,-1.175432E0,1.4888903E-1,1.0858321E-1,-8.459506E-1,1.0771483E0,-1.8077803E-1,-1.2676309E0,8.809303E-2,1.9052589E-1,-1.0689423E0,-9.3739337E-1,1.3119213E-1,1.1580697E0,-1.8009898E-1,-1.3437684E0,8.3660744E-2,1.24666214E-1,1.5339099E0,-1.2544245E0,9.938284E-2,-1.031254E0,9.821061E-2,1.2623276E0,-3.4297216E-1,-1.4043468E0,3.4535114E-2,3.896858E-2,1.2153821E0,2.3182124E-1,1.7297093E-2,-1.379247E0,5.4064963E-2,-1.1071928E0,1.0675213E-1,1.3323805E0,-1.08782545E-1,-1.6060369E-1,1.2552966E-1,-1.4514933E0,2.2279395E-2,1.23480104E-1,-9.9151045E-1,1.354418E0,-8.9650415E-2,-1.483072E0,2.0831145E-2,-1.1853195E0,1.0314768E-1,1.3914254E0,-7.3522575E-2,-1.4972994E0,4.172334E-3,5.9868887E-2,1.4246722E0,-1.2830678E0,3.51886E-1,1.4898555E0,-6.432469E-2,-2.20919E-1,-4.984424E-2,-1.2538276E0,8.9796595E-2,1.4539732E0,-4.9400337E-2,-1.544833E0,4.130818E-3,-1.9251361E-2,1.0877109E0,1.6539751E0,-4.797649E-2,-1.5127614E0,1.00531586E-1,-9.289868E-2,1.599989E-1,1.5802416E0,1.1460411E-2,-1.3517438E0,1.2992327E-1,1.5131893E0,-6.2488387E-3,-2.2015911E-1,-4.745618E-2,5.8268853E-3,-1.92598E-1,1.7538954E-1,-3.893414E-2,2.4401632E-1,7.39368E-2,-2.2945341E-1,-4.3072328E-2,1.1318691E-1,-8.960245E-2,2.3504567E-1,1.6983185E-2,-1.9801936E-1,5.145301E-2,9.781816E-2,-6.0956318E-2,2.1807319E-1,-4.550193E-3],"categories":[],"categories_nodes":[],"categories_segments":[],"categories_sizes":[],"default_left":[0,0,0,0,0,0,0,0,0,0,0,0,0,0,0,0,0,0,0,0,0,0,0,0,0,0,0,0,0,0,0,0,0,0,0,0,0,0,0,0,0,0,0,0,0,0,0,0,0,0,0,0,0,0,0,0,0,0,0,0,0,0,0,0,0,0,0,0,0,0,0,0,0,0,0,0,0,0,0,0,0,0,0,0,0,0,0,0,0,0,0,0,0,0,0,0,0,0,0,0,0,0,0,0,0],"id":3,"left_children":[1,3,5,7,9,11,-1,13,15,17,-1,19,-1,21,23,25,-1,27,-1,29,-1,31,33,35,-1,37,-1,39,41,43,-1,45,47,-1,-1,49,-1,51,-1,53,-1,-1,-1,55,-1,57,59,61,-1,63,-1,65,-1,67,-1,69,-1,71,73,75,77,79,-1,-1,-1,81,-1,83,-1,85,-1,87,89,91,-1,93,95,-1,-1,97,-1,99,101,103,-1,-1,-1,-1,-1,-1,-1,-1,-1,-1,-1,-1,-1,-1,-1,-1,-1,-1,-1,-1,-1],"loss_changes":[6.0796135E1,4.8258873E1,1.0421455E1,4.004865E1,1.0944424E1,8.447002E0,0E0,3.2450825E1,9.130417E0,1.1445549E1,0E0,7.0614853E0,0E0,2.7528694E1,8.114506E0,8.206001E0,0E0,8.391655E0,0E0,4.4555664E0,0E0,2.797125E1,2.2986832E0,4.6670074E0,0E0,7.1663933E0,0E0,7.859329E0,5.10513E0,3.2704697E0,0E0,2.4415607E1,6.4928093E0,0E0,0E0,3.231865E0,0E0,7.3468018E0,0E0,5.8361053E0,0E0,0E0,0E0,2.76725E0,0E0,2.1327225E1,8.776241E0,5.7463455E0,0E0,1.3492508E0,0E0,6.2470284E0,0E0,5.465004E0,0E0,2.8717575E0,0E0,2.0163383E1,5.4354496E0,5.7705765E0,4.432882E0,2.3406143E0,0E0,0E0,0E0,5.9012756E0,0E0,3.9733124E0,0E0,7.305069E-1,0E0,1.9127844E1,4.3436413E0,1.6221237E-1,0E0,1.8109932E0,2.3286653E0,0E0,0E0,2.413475E0,0E0,4.782242E0,1.4955269E0,2.963295E0,0E0,0E0,0E0,0E0,0E0,0E0,0E0,0E0,0E0,0E0,0E0,0E0,0E0,0E0,0E0,0E0,0E0,0E0,0E0,0E0,0E0],"parents":[2147483647,0,0,1,1,2,2,3,3,4,4,5,5,7,7,8,8,9,9,11,11,13,13,14,14,15,15,17,17,19,19,21,21,22,22,23,23,25,25,27,27,28,28,29,29,31,31,32,32,35,35,37,37,39,39,43,43,45,45,46,46,47,47,49,49,51,51,53,53,55,55,57,57,58,58,59,59,60,60,61,61,65,65,67,67,69,69,71,71,72,72,73,73,75,75,76,76,79,79,81,81,82,82,83,83],"right_children":[2,4,6,8,10,12,-1,14,16,18,-1,20,-1,22,24,26,-1,28,-1,30,-1,32,34,36,-1,38,-1,40,42,44,-1,46,48,-1,-1,50,-1,52,-1,54,-1,-1,-1,56,-1,58,60,62,-1,64,-1,66,-1,68,-1,70,-1,72,74,76,78,80,-1,-1,-1,82,-1,84,-1,86,-1,88,90,92,-1,94,96,-1,-1,98,-1,100,102,104,-1,-1,-1,-1,-1,-1,-1,-1,-1,-1,-1,-1,-1,-1,-1,-1,-1,-1,-1,-1,-1],"split_conditions":[2.2187252E-3,3.2045592E-3,3.599306E-3,4.8445044E-3,4.3972144E-3,3.9506387E-3,1.4888903E-1,3.9059594E-3,2.748151E-3,3.1687748E-3,-1.8077803E-1,3.7778423E-3,8.809303E-2,6.9000316E-3,5.6365347E-3,8.6226035E-3,1.3119213E-1,2.4769611E-3,-1.8009898E-1,3.397079E-3,8.3660744E-2,2.6394082E-3,6.3830824E-3,4.8898687E-3,9.938284E-2,3.3669553E-3,9.821061E-2,8.774498E-3,2.3919947E-3,1.3031671E-2,3.4535114E-2,2.4621116E-3,4.363138E-3,2.3182124E-1,1.7297093E-2,3.9251274E-3,5.4064963E-2,3.740453E-3,1.0675213E-1,7.7790166E-3,-1.08782545E-1,-1.6060369E-1,1.2552966E-1,3.6386645E-3,2.2279395E-2,2.8666821E-3,4.16626E-3,2.4329035E-3,-8.9650415E-2,6.0675545E-3,2.0831145E-2,1.4832401E-2,1.0314768E-1,1.6003659E-2,-7.3522575E-2,8.445556E-3,4.172334E-3,1.0385141E-2,3.2390151E-3,5.496301E-3,3.1874743E-3,6.683407E-3,-6.432469E-2,-2.20919E-1,-4.984424E-2,1.0519129E-2,8.9796595E-2,4.5966352E-3,-4.9400337E-2,2.4779912E-2,4.130818E-3,2.8922944E-3,1.9839979E-3,8.75339E-3,-4.797649E-2,1.0214204E-2,2.9024393E-3,-9.289868E-2,1.599989E-1,9.153459E-3,1.1460411E-2,6.129308E-3,1.1980212E-2,9.315376E-3,-6.2488387E-3,-2.2015911E-1,-4.745618E-2,5.8268853E-3,-1.92598E-1,1.7538954E-1,-3.893414E-2,2.4401632E-1,7.39368E-2,-2.2945341E-1,-4.3072328E-2,1.1318691E-1,-8.960245E-2,2.3504567E-1,1.6983185E-2,-1.9801936E-1,5.145301E-2,9.781816E-2,-6.0956318E-2,2.1807319E-1,-4.550193E-3],"split_indices":[3443,1708,3848,2847,2093,4833,0,2204,2222,1132,0,3720,0,1504,3678,3099,0,3029,0,438,0,2291,3105,1992,0,1594,0,2558,3411,2972,0,19,3071,0,0,148,0,3286,0,2352,0,0,0,336,0,3463,2188,4263,0,2392,0,3257,0,4152,0,2515,0,249,294,3105,3313,1183,0,0,0,387,0,148,0,3399,0,4438,2188,249,0,4152,1443,0,0,3411,0,2931,387,2466,0,0,0,0,0,0,0,0,0,0,0,0,0,0,0,0,0,0,0,0,0],"split_type":[0,0,0,0,0,0,0,0,0,0,0,0,0,0,0,0,0,0,0,0,0,0,0,0,0,0,0,0,0,0,0,0,0,0,0,0,0,0,0,0,0,0,0,0,0,0,0,0,0,0,0,0,0,0,0,0,0,0,0,0,0,0,0,0,0,0,0,0,0,0,0,0,0,0,0,0,0,0,0,0,0,0,0,0,0,0,0,0,0,0,0,0,0,0,0,0,0,0,0,0,0,0,0,0,0],"sum_hessian":[4.8148813E2,4.3508398E2,4.6404144E1,3.8281506E2,5.226892E1,4.497289E1,1.4312559E0,3.3320352E2,4.9611515E1,5.1052757E1,1.2161613E0,4.3070057E1,1.9028308E0,3.1230853E2,2.0895E1,4.7642452E1,1.9690629E0,4.985588E1,1.1968791E0,4.1649494E1,1.4205636E0,2.9875482E2,1.3553715E1,1.9188923E1,1.7060789E0,4.541242E1,2.2300334E0,4.6766644E1,3.0892382E0,4.023403E1,1.4154605E0,2.7795184E2,2.080297E1,1.2314763E1,1.2389517E0,1.7980232E1,1.2086906E0,4.3935192E1,1.4772277E0,4.5548676E1,1.2179651E0,1.9189174E0,1.1703207E0,3.9125835E1,1.1081977E0,2.5769775E2,2.0254105E1,1.9604322E1,1.1986481E0,1.6863823E1,1.1164091E0,4.2492035E1,1.4431567E0,4.4388645E1,1.1600313E0,3.7941757E1,1.1840764E0,2.4668414E2,1.1013606E1,1.6679138E1,3.574967E0,1.840845E1,1.1958728E0,1.5184819E1,1.679003E0,4.1258335E1,1.2337003E0,4.3012703E1,1.3759423E0,3.6784744E1,1.1570164E0,2.299635E2,1.6720644E1,9.805558E0,1.2080476E0,1.4224375E1,2.4547627E0,1.635878E0,1.939089E0,1.7183054E1,1.2253962E0,3.855337E1,2.704962E0,4.136834E1,1.6443616E0,3.5660526E1,1.1242167E0,2.2101457E2,8.948931E0,1.4991528E1,1.7291156E0,8.579239E0,1.2263196E0,1.2550178E1,1.6741976E0,1.208111E0,1.2466516E0,1.5953475E1,1.2295786E0,3.736833E1,1.1850463E0,1.2307594E0,1.4742026E0,4.0203754E1,1.1645875E0],"tree_param":{"num_deleted":"0","num_feature":"5000","num_nodes":"105","size_leaf_vector":"1"}},{"base_weights":[-3.757455E-2,9.119879E-2,-1.0358195E0,2.1037479E-1,-7.1348494E-1,-1.112094E0,9.108361E-2,2.7754512E-1,-1.12553E0,-8.23113E-1,9.4987595E-1,-1.1897782E0,4.449821E-1,8.749191E-2,6.752849E-1,-1.3152777E0,1.1365662E-1,-9.3936765E-1,8.3582777E-1,-1.1310176E-2,2.0052232E-1,-1.244796E0,9.982681E-2,-1.0474485E-1,1.9153365E-1,1.9609629E-1,-6.315201E-1,7.322929E-1,-1.9940951E-1,-1.6110398E0,6.497737E-2,-1.0416021E0,1.4197212E-1,1.8707897E-1,-2.272632E-2,-1.300913E0,9.0848416E-2,2.4995515E-1,-1.4836897E0,-7.5979835E-1,1.5082966E-1,8.162033E-1,-5.9494245E-1,-2.3999164E-1,-3.4794E-2,8.8168055E-2,-9.182899E-2,-1.1328977E0,8.3037406E-2,-1.3581331E0,4.040185E-2,3.175123E-1,-8.941234E-1,-7.569421E-2,-2.3742528E-1,-8.7103546E-1,1.4329238E-1,9.0411896E-1,-5.460558E-1,-9.8779464E-1,1.1383081E-1,-1.200702E0,1.0347151E-1,-1.4004325E0,3.750896E-2,4.0874347E-1,-6.4046156E-1,-1.2157197E0,1.40259E-1,-1.0063949E0,1.1471565E-1,1.0057616E0,-1.4322856E-1,-8.720083E-1,7.808202E-2,-5.927459E-3,-1.9927618E-1,-1.2745838E0,1.064654E-1,-1.4400216E0,8.861538E-3,4.816447E-1,-9.807662E-1,-9.731637E-1,6.4391583E-1,-1.4951339E0,3.882495E-2,-1.1351426E0,1.0476733E-1,1.0504647E0,-1.7539302E-1,-5.8508474E-1,1.5466082E-1,-2.8240505E-1,-2.0397128E-1,-1.3536636E0,8.173969E-2,-2.0758314E-1,-2.519819E-3,7.525625E-2,-1.5116231E-1,-2.0015319E-1,-2.2652317E-3,-1.7075677E-1,7.3279284E-2,1.6263875E-1,-4.5710806E-2,-2.4738416E-1,1.5066281E-2,-1.8227455E-1,3.169956E-2,1.545675E-1,-1.07501365E-1,-1.4683947E-1,1.21238716E-1,5.622459E-2,-1.2754598E-1,-1.9862E-1,3.989628E-2],"categories":[],"categories_nodes":[],"categories_segments":[],"categories_sizes":[],"default_left":[0,0,0,0,0,0,0,0,0,0,0,0,0,0,0,0,0,0,0,0,0,0,0,0,0,0,0,0,0,0,0,0,0,0,0,0,0,0,0,0,0,0,0,0,0,0,0,0,0,0,0,0,0,0,0,0,0,0,0,0,0,0,0,0,0,0,0,0,0,0,0,0,0,0,0,0,0,0,0,0,0,0,0,0,0,0,0,0,0,0,0,0,0,0,0,0,0,0,0,0,0,0,0,0,0,0,0,0,0,0,0,0,0,0,0,0,0,0,0],"id":4,"left_children":[1,3,5,7,9,11,-1,13,15,17,19,21,23,25,27,29,-1,31,33,-1,-1,35,-1,-1,-1,37,39,41,-1,43,45,47,-1,-1,-1,49,-1,51,53,55,-1,57,59,-1,-1,-1,-1,61,-1,63,-1,65,67,-1,-1,69,-1,71,73,75,-1,77,-1,79,-1,81,83,85,-1,87,-1,89,91,93,-1,-1,-1,95,-1,97,-1,99,101,103,105,107,-1,109,-1,111,-1,113,-1,115,-1,117,-1,-1,-1,-1,-1,-1,-1,-1,-1,-1,-1,-1,-1,-1,-1,-1,-1,-1,-1,-1,-1,-1,-1],"loss_changes":[6.1610126E1,4.0886574E1,7.767277E0,3.3581974E1,1.0815563E1,6.9111786E0,0E0,2.6686304E1,7.66547E0,1.0844242E1,2.0382197E0,6.176941E0,4.586602E0,1.8908857E1,1.4718441E1,6.933571E0,0E0,1.0884575E1,2.187501E0,0E0,0E0,6.1011887E0,0E0,0E0,0E0,1.934792E1,7.790571E0,1.2946812E1,0E0,1.5162468E0,2.0063798E0,7.724972E0,0E0,0E0,0E0,4.7919464E0,0E0,1.60587E1,4.1596603E-1,6.876478E0,0E0,1.3147896E1,4.8033504E0,0E0,0E0,0E0,0E0,6.6121902E0,0E0,3.5991135E0,0E0,1.7169193E1,8.316473E0,0E0,0E0,7.4464283E0,0E0,1.0750259E1,3.015241E0,2.4543338E0,0E0,7.3311844E0,0E0,2.7477036E0,0E0,1.8426674E1,7.981161E0,4.7555E0,0E0,7.00408E0,0E0,1.0497971E1,5.988966E0,1.5945611E0,0E0,0E0,0E0,7.0637894E0,0E0,2.6871948E0,0E0,1.5337788E1,3.945322E0,5.828867E0,2.460974E0,4.0779724E0,0E0,6.1498184E0,0E0,9.590324E0,0E0,6.163598E0,0E0,2.1448355E0,0E0,4.8008575E0,0E0,0E0,0E0,0E0,0E0,0E0,0E0,0E0,0E0,0E0,0E0,0E0,0E0,0E0,0E0,0E0,0E0,0E0,0E0,0E0,0E0,0E0,0E0],"parents":[2147483647,0,0,1,1,2,2,3,3,4,4,5,5,7,7,8,8,9,9,10,10,11,11,12,12,13,13,14,14,15,15,17,17,18,18,21,21,25,25,26,26,27,27,29,29,30,30,31,31,35,35,37,37,38,38,39,39,41,41,42,42,47,47,49,49,51,51,52,52,55,55,57,57,58,58,59,59,61,61,63,63,65,65,66,66,67,67,69,69,71,71,72,72,73,73,77,77,79,79,81,81,82,82,83,83,84,84,85,85,87,87,89,89,91,91,93,93,95,95],"right_children":[2,4,6,8,10,12,-1,14,16,18,20,22,24,26,28,30,-1,32,34,-1,-1,36,-1,-1,-1,38,40,42,-1,44,46,48,-1,-1,-1,50,-1,52,54,56,-1,58,60,-1,-1,-1,-1,62,-1,64,-1,66,68,-1,-1,70,-1,72,74,76,-1,78,-1,80,-1,82,84,86,-1,88,-1,90,92,94,-1,-1,-1,96,-1,98,-1,100,102,104,106,108,-1,110,-1,112,-1,114,-1,116,-1,118,-1,-1,-1,-1,-1,-1,-1,-1,-1,-1,-1,-1,-1,-1,-1,-1,-1,-1,-1,-1,-1,-1,-1],"split_conditions":[3.0081351E-3,4.0393746E-3,9.44629E-3,3.8816165E-3,2.748151E-3,7.3425486E-3,9.108361E-2,1.5186459E-3,3.2471274E-3,7.4536554E-3,1.6006425E-3,3.3131994E-3,1.5906289E-3,3.2933068E-3,5.5008507E-3,3.352721E-3,1.1365662E-1,8.803115E-3,1.3935714E-2,-1.1310176E-2,2.0052232E-1,5.349212E-3,9.982681E-2,-1.0474485E-1,1.9153365E-1,1.000439E-2,5.64342E-3,5.5074324E-3,-1.9940951E-1,2.7474393E-3,1.5906289E-3,7.470847E-3,1.4197212E-1,1.8707897E-1,-2.272632E-2,8.519245E-3,9.0848416E-2,2.9013294E-3,1.2951378E-3,5.356919E-3,1.5082966E-1,7.1989787E-3,4.921965E-3,-2.3999164E-1,-3.4794E-2,8.8168055E-2,-9.182899E-2,7.352718E-3,8.3037406E-2,1.1583738E-2,4.040185E-2,3.341652E-3,1.7364068E-3,-7.569421E-2,-2.3742528E-1,7.128332E-3,1.4329238E-1,2.4501507E-3,6.981596E-3,3.2702275E-3,1.1383081E-1,9.996343E-3,1.0347151E-1,6.6582947E-3,3.750896E-2,8.383886E-3,4.873974E-3,1.5293742E-3,1.40259E-1,8.1394045E-3,1.1471565E-1,4.3696645E-3,2.2415216E-3,1.2930391E-3,7.808202E-2,-5.927459E-3,-1.9927618E-1,4.459839E-3,1.064654E-1,2.8394328E-3,8.861538E-3,1.4253989E-2,6.863342E-3,4.9618483E-3,4.883056E-3,6.410285E-3,3.882495E-2,2.8678868E-3,1.0476733E-1,8.847401E-3,-1.7539302E-1,2.0657873E-3,1.5466082E-1,1.0682016E-2,-2.0397128E-1,2.9473298E-3,8.173969E-2,-2.0758314E-1,-2.519819E-3,7.525625E-2,-1.5116231E-1,-2.0015319E-1,-2.2652317E-3,-1.7075677E-1,7.3279284E-2,1.6263875E-1,-4.5710806E-2,-2.4738416E-1,1.5066281E-2,-1.8227455E-1,3.169956E-2,1.545675E-1,-1.07501365E-1,-1.4683947E-1,1.21238716E-1,5.622459E-2,-1.2754598E-1,-1.9862E-1,3.989628E-2],"split_indices":[3443,2693,2624,4490,2222,2613,0,2817,4094,4229,3823,891,2169,4251,2690,704,0,3720,4229,0,0,2798,0,0,0,422,4442,2029,0,1504,2169,1131,0,0,0,966,0,2590,3313,1554,0,4251,1992,0,0,0,0,1225,0,4032,0,2812,2537,0,0,2601,0,4800,1148,4152,0,3272,0,630,0,2687,4417,4410,0,1407,0,1666,1708,4805,0,0,0,1316,0,1856,0,2896,2169,2992,3411,2966,0,1274,0,4739,0,3763,0,2817,0,1339,0,0,0,0,0,0,0,0,0,0,0,0,0,0,0,0,0,0,0,0,0,0,0],"split_type":[0,0,0,0,0,0,0,0,0,0,0,0,0,0,0,0,0,0,0,0,0,0,0,0,0,0,0,0,0,0,0,0,0,0,0,0,0,0,0,0,0,0,0,0,0,0,0,0,0,0,0,0,0,0,0,0,0,0,0,0,0,0,0,0,0,0,0,0,0,0,0,0,0,0,0,0,0,0,0,0,0,0,0,0,0,0,0,0,0,0,0,0,0,0,0,0,0,0,0,0,0,0,0,0,0,0,0,0,0,0,0,0,0,0,0,0,0,0,0],"sum_hessian":[4.775448E2,4.2378528E2,5.375954E1,3.6976114E2,5.4024136E1,5.17591E1,2.0004418E0,3.5281363E2,1.6947508E1,5.115761E1,2.8665233E0,4.9524178E1,2.2349231E0,2.3956264E2,1.13250984E2,1.572817E1,1.219337E0,4.8212734E1,2.944879E0,1.1793921E0,1.6871313E0,4.846859E1,1.0555878E0,1.0575327E0,1.1773905E0,2.0875774E2,3.0804895E1,1.10891365E2,2.3596172E0,1.2814966E1,2.913205E0,4.6258568E1,1.9541647E0,1.7358339E0,1.2090452E0,4.7377666E1,1.0909216E0,2.0309705E2,5.6606874E0,2.9170563E1,1.6343341E0,1.04659615E2,6.231752E0,1.1672818E1,1.1421477E0,1.7043356E0,1.2088693E0,4.4102528E1,2.1560416E0,4.587189E1,1.5057753E0,1.9245515E2,1.06418915E1,1.6915416E0,3.969146E0,2.7939363E1,1.2311977E0,9.863064E1,6.028981E0,5.105668E0,1.1260836E0,4.2907005E1,1.1955228E0,4.484409E1,1.0278014E0,1.7624416E2,1.6211012E1,9.40534E0,1.2365516E0,2.6242666E1,1.6966989E0,8.99417E1,8.688931E0,4.816601E0,1.2123808E0,1.9564711E0,3.149197E0,4.1686657E1,1.2203463E0,4.3678917E1,1.165175E0,1.6807918E2,8.164977E0,1.3068171E1,3.1428416E0,7.921478E0,1.4838619E0,2.4777775E1,1.4648901E0,8.872058E1,1.2211206E0,6.8091917E0,1.8797401E0,3.1371672E0,1.6794335E0,4.0245743E1,1.4409133E0,4.236369E1,1.3152273E0,1.629027E2,5.176481E0,5.2428856E0,2.9220912E0,1.13787985E1,1.6893717E0,1.9208279E0,1.2220136E0,6.6849265E0,1.2365516E0,2.2112362E1,2.6654143E0,8.6562294E1,2.1582897E0,5.370084E0,1.4391083E0,1.6753743E0,1.461793E0,3.8838158E1,1.4075885E0],"tree_param":{"num_deleted":"0","num_feature":"5000","num_nodes":"119","size_leaf_vector":"1"}},{"base_weights":[2.2752628E-2,1.1815226E-1,-1.0093517E0,2.028923E-1,-9.9529815E-1,-1.0999901E0,1.4733177E-1,1.0717902E-1,1.0174378E0,-1.1349837E0,1.6966228E-1,-1.2094152E0,1.1387284E-1,2.303622E-1,-5.850989E-1,1.1511424E0,-7.8253E-1,-1.2527887E0,1.3075085E-1,-1.2814189E0,1.6420757E-2,1.13196775E-1,-1.1410025E-1,8.3053924E-2,7.768801E-1,-7.0777434E-1,9.58179E-1,1.2532936E0,-3.9224207E-1,4.5891553E-2,-2.0005143E-1,-1.3366379E0,5.092421E-2,-1.335331E0,2.6132526E-2,1.699581E-1,-7.2178394E-1,9.2540526E-1,-3.3125645E-1,-8.3371115E-1,7.893401E-1,2.508732E-1,-4.1974466E-2,1.3264368E0,-4.0377088E-2,-8.862533E-2,3.4330094E-3,-1.425724E0,4.685505E-3,-1.364256E0,-2.9187296E-2,2.1851659E-1,-1.3140907E0,-8.976407E-1,1.6564612E-1,1.0211052E0,-9.315639E-1,-8.67367E-1,1.3292263E-1,-9.356948E-1,1.2622581E-1,1.7877823E-1,1.8922922E-1,1.3959E0,-1.774466E-2,-1.4957685E0,3.31682E-3,-1.9472076E-1,-3.9120678E-2,2.8298965E-1,-8.776017E-1,-2.4747017E-1,9.821478E-3,-1.1147335E0,4.3072835E-1,1.1032852E0,-1.7759196E-1,-1.1388441E-2,-1.8831234E-1,-1.2402276E0,3.6112748E-2,-1.0519546E0,8.525801E-1,6.9951825E-2,-3.041184E-2,1.448354E0,-1.2114471E-2,-1.5651231E0,-2.6215177E-3,3.730269E-1,-5.051043E-1,-1.2697057E0,-2.3908779E-2,-1.3079964E0,8.247444E-2,1.5448827E-1,-8.250141E-2,1.3170377E0,2.620241E-1,-3.6113307E-2,-2.166877E-1,-1.1449949E0,9.722993E-2,1.4710079E-1,3.892856E-2,1.4998863E0,9.5583225E-4,-2.242717E-1,-6.134113E-2,5.9133757E-2,-1.4579242E-1,-9.969003E-2,2.0014167E-1,-2.1690212E-1,2.9090567E-2,7.520628E-2,-8.197081E-2,-2.0272245E-1,5.548305E-2,1.9625352E-1,-4.401708E-2,-1.4862368E-1,1.4079165E-1,-1.7371733E-1,7.957029E-2,2.1815045E-1,4.55678E-2],"categories":[],"categories_nodes":[],"categories_segments":[],"categories_sizes":[],"default_left":[0,0,0,0,0,0,0,0,0,0,0,0,0,0,0,0,0,0,0,0,0,0,0,0,0,0,0,0,0,0,0,0,0,0,0,0,0,0,0,0,0,0,0,0,0,0,0,0,0,0,0,0,0,0,0,0,0,0,0,0,0,0,0,0,0,0,0,0,0,0,0,0,0,0,0,0,0,0,0,0,0,0,0,0,0,0,0,0,0,0,0,0,0,0,0,0,0,0,0,0,0,0,0,0,0,0,0,0,0,0,0,0,0,0,0,0,0,0,0,0,0,0,0,0,0,0,0],"id":5,"left_children":[1,3,5,7,9,11,-1,13,15,17,-1,19,21,23,25,27,29,31,-1,33,-1,-1,-1,35,37,39,41,43,45,-1,-1,47,-1,49,-1,51,53,55,57,59,61,-1,-1,63,-1,-1,-1,65,-1,67,-1,69,71,73,-1,75,77,79,-1,81,-1,83,-1,85,-1,87,-1,-1,-1,89,91,-1,-1,93,95,97,-1,-1,-1,99,-1,101,103,-1,-1,105,-1,107,-1,109,111,113,115,117,-1,-1,-1,119,121,-1,-1,123,-1,-1,-1,125,-1,-1,-1,-1,-1,-1,-1,-1,-1,-1,-1,-1,-1,-1,-1,-1,-1,-1,-1,-1,-1],"loss_changes":[4.6730778E1,4.1173664E1,8.662212E0,3.1415607E1,1.089603E1,5.312271E0,0E0,3.1086502E1,1.110495E1,8.374229E0,0E0,3.5722694E0,3.3273895E0,2.4799513E1,1.1111782E1,6.7779007E0,2.9998746E0,4.3347206E0,0E0,2.9451294E0,0E0,0E0,0E0,1.7216417E1,1.1079044E1,1.0391989E1,5.2393904E0,4.626587E0,3.4035754E-1,0E0,0E0,3.3685074E0,0E0,7.904587E-1,0E0,1.624085E1,9.104715E0,1.1254932E1,6.640517E0,9.357491E0,1.3100021E0,0E0,0E0,3.8219604E0,0E0,0E0,0E0,2.6312675E0,0E0,5.3416824E-1,0E0,1.5458543E1,4.6172743E0,6.982342E0,0E0,1.1864162E1,1.0734956E0,3.0450315E0,0E0,1.0445549E1,0E0,5.3031015E-1,0E0,2.8115997E0,0E0,2.4708023E0,0E0,0E0,0E0,1.4665794E1,4.053482E0,0E0,0E0,7.243971E0,3.3187237E0,9.405403E0,0E0,0E0,0E0,1.1264768E0,0E0,7.875263E0,8.986235E-2,0E0,0E0,2.472496E0,0E0,2.6483536E-1,0E0,1.3262936E1,9.564608E0,3.7676315E0,1.8456745E0,4.861397E0,0E0,0E0,0E0,6.386215E0,1.3109666E1,0E0,0E0,7.5604706E0,0E0,0E0,0E0,1.7030182E0,0E0,0E0,0E0,0E0,0E0,0E0,0E0,0E0,0E0,0E0,0E0,0E0,0E0,0E0,0E0,0E0,0E0,0E0,0E0,0E0,0E0],"parents":[2147483647,0,0,1,1,2,2,3,3,4,4,5,5,7,7,8,8,9,9,11,11,12,12,13,13,14,14,15,15,16,16,17,17,19,19,23,23,24,24,25,25,26,26,27,27,28,28,31,31,33,33,35,35,36,36,37,37,38,38,39,39,40,40,43,43,47,47,49,49,51,51,52,52,53,53,55,55,56,56,57,57,59,59,61,61,63,63,65,65,69,69,70,70,73,73,74,74,75,75,79,79,81,81,82,82,85,85,87,87,89,89,90,90,91,91,92,92,93,93,97,97,98,98,101,101,105,105],"right_children":[2,4,6,8,10,12,-1,14,16,18,-1,20,22,24,26,28,30,32,-1,34,-1,-1,-1,36,38,40,42,44,46,-1,-1,48,-1,50,-1,52,54,56,58,60,62,-1,-1,64,-1,-1,-1,66,-1,68,-1,70,72,74,-1,76,78,80,-1,82,-1,84,-1,86,-1,88,-1,-1,-1,90,92,-1,-1,94,96,98,-1,-1,-1,100,-1,102,104,-1,-1,106,-1,108,-1,110,112,114,116,118,-1,-1,-1,120,122,-1,-1,124,-1,-1,-1,126,-1,-1,-1,-1,-1,-1,-1,-1,-1,-1,-1,-1,-1,-1,-1,-1,-1,-1,-1,-1,-1],"split_conditions":[6.2139425E-3,3.3923343E-3,1.059825E-2,3.8237632E-3,7.166382E-3,6.5787775E-3,1.4733177E-1,2.739691E-3,7.023802E-3,5.3660856E-3,1.6966228E-1,2.8116747E-3,1.9001954E-3,3.037258E-3,7.375109E-3,7.0014126E-3,1.3803511E-3,4.016085E-3,1.3075085E-1,3.527274E-3,1.6420757E-2,1.13196775E-1,-1.1410025E-1,3.1631514E-3,2.2154225E-3,6.068934E-3,5.931812E-3,1.3530937E-2,5.5841077E-3,4.5891553E-2,-2.0005143E-1,4.9321596E-3,5.092421E-2,1.395898E-2,2.6132526E-2,5.0282823E-3,3.5456268E-3,6.787882E-3,7.0386357E-3,1.0332106E-2,2.613026E-3,2.508732E-1,-4.1974466E-2,5.409695E-3,-4.0377088E-2,-8.862533E-2,3.4330094E-3,5.779766E-3,4.685505E-3,1.1172753E-2,-2.9187296E-2,1.183533E-2,1.1964522E-2,3.2573915E-3,1.6564612E-1,3.4480512E-3,7.924994E-3,1.9864575E-3,1.3292263E-1,8.036584E-3,1.2622581E-1,2.3902536E-3,1.8922922E-1,1.6914697E-2,-1.774466E-2,8.756792E-3,3.31682E-3,-1.9472076E-1,-3.9120678E-2,2.4865668E-3,5.252644E-3,-2.4747017E-1,9.821478E-3,6.7106974E-3,3.8094816E-3,5.4981336E-3,-1.7759196E-1,-1.1388441E-2,-1.8831234E-1,1.8324346E-3,3.6112748E-2,1.8386402E-3,4.245532E-3,6.9951825E-2,-3.041184E-2,3.3881236E-3,-1.2114471E-2,5.0460724E-3,-2.6215177E-3,2.8581317E-3,2.6508581E-3,1.4520813E-2,1.3982638E-3,9.210275E-3,8.247444E-2,1.5448827E-1,-8.250141E-2,4.7472096E-3,5.1137176E-3,-3.6113307E-2,-2.166877E-1,6.116589E-3,9.722993E-2,1.4710079E-1,3.892856E-2,9.9250665E-3,9.5583225E-4,-2.242717E-1,-6.134113E-2,5.9133757E-2,-1.4579242E-1,-9.969003E-2,2.0014167E-1,-2.1690212E-1,2.9090567E-2,7.520628E-2,-8.197081E-2,-2.0272245E-1,5.548305E-2,1.9625352E-1,-4.401708E-2,-1.4862368E-1,1.4079165E-1,-1.7371733E-1,7.957029E-2,2.1815045E-1,4.55678E-2],"split_indices":[3443,19,484,1708,4897,3127,0,2693,2687,3064,0,570,1047,4417,4862,1117,3554,3521,0,179,0,0,0,3052,1544,2992,3313,1128,2065,0,0,2282,0,3386,0,3065,4229,4486,1348,4843,1992,0,0,2874,0,0,0,3919,0,1662,0,2043,2416,2624,0,3588,4417,2933,0,2040,0,2065,0,3706,0,2659,0,0,0,2687,3554,0,0,2134,3479,4152,0,0,0,2392,0,4250,1443,0,0,1863,0,2797,0,3550,2982,3823,3411,2660,0,0,0,3707,3313,0,0,2855,0,0,0,2912,0,0,0,0,0,0,0,0,0,0,0,0,0,0,0,0,0,0,0,0,0],"split_type":[0,0,0,0,0,0,0,0,0,0,0,0,0,0,0,0,0,0,0,0,0,0,0,0,0,0,0,0,0,0,0,0,0,0,0,0,0,0,0,0,0,0,0,0,0,0,0,0,0,0,0,0,0,0,0,0,0,0,0,0,0,0,0,0,0,0,0,0,0,0,0,0,0,0,0,0,0,0,0,0,0,0,0,0,0,0,0,0,0,0,0,0,0,0,0,0,0,0,0,0,0,0,0,0,0,0,0,0,0,0,0,0,0,0,0,0,0,0,0,0,0,0,0,0,0,0,0],"sum_hessian":[4.723942E2,4.3323486E2,3.915931E1,4.0335498E2,2.9879875E1,3.7957092E1,1.2022177E0,3.61955E2,4.1399994E1,2.8558279E1,1.3215967E0,3.4821712E1,3.1353786E0,3.078447E2,5.4110306E1,3.8872913E1,2.5270798E0,2.7392984E1,1.1652946E0,3.3061516E1,1.7601979E0,1.8679434E0,1.2674352E0,2.4339267E2,6.445203E1,5.0627316E1,3.4829905E0,3.663606E1,2.2368548E0,1.1112305E0,1.4158492E0,2.6206789E1,1.1861947E0,3.197763E1,1.0838858E0,2.2038493E2,2.300773E1,5.6979836E1,7.472192E0,4.710775E1,3.5195684E0,1.8394169E0,1.6435735E0,3.510996E1,1.526099E0,1.0888218E0,1.148033E0,2.4568705E1,1.6380856E0,3.0971933E1,1.005697E0,2.1422809E2,6.1568446E0,2.154738E1,1.4603498E0,5.4615326E1,2.3645089E0,5.4947834E0,1.9774084E0,4.492815E1,2.1795974E0,2.3192205E0,1.2003479E0,3.3545864E1,1.5640969E0,2.3405622E1,1.1630813E0,2.9955137E1,1.0167958E0,2.0302792E2,1.1200163E1,4.428767E0,1.7280777E0,1.865883E1,2.8885508E0,5.3223152E1,1.3921723E0,1.1653104E0,1.1991986E0,4.0505605E0,1.4442232E0,4.2572186E1,2.355967E0,1.1365508E0,1.1826699E0,3.2421654E1,1.1242102E0,2.2298943E1,1.1066797E0,1.8268358E2,2.034435E1,7.341074E0,3.8590887E0,1.6966658E1,1.6921726E0,1.6912546E0,1.1972959E0,4.1988834E1,1.123432E1,1.4042377E0,2.6463225E0,4.0745888E1,1.826298E0,1.1354903E0,1.2204769E0,3.1263544E1,1.158108E0,2.1185371E1,1.1135715E0,1.7720131E2,5.4822617E0,1.894917E1,1.3951824E0,6.1320667E0,1.2090071E0,1.9521464E0,1.9069421E0,1.5817509E1,1.1491485E0,4.0048584E1,1.9402502E0,3.8873901E0,7.3469296E0,3.8848526E1,1.8973601E0,2.9472845E1,1.7906992E0],"tree_param":{"num_deleted":"0","num_feature":"5000","num_nodes":"127","size_leaf_vector":"1"}},{"base_weights":[-1.9186543E-2,8.069101E-2,-8.691551E-1,1.7732845E-1,-6.476817E-1,-1.1810597E0,4.1062634E-2,2.6962546E-1,-6.0929275E-1,-7.9159683E-1,9.7055936E-1,-1.2335719E0,3.509659E-2,-3.221409E-1,1.3717942E0,3.4960103E-1,-6.7368156E-1,-7.4889195E-1,6.2248915E-1,-9.1454405E-1,9.45073E-1,1.908429E-1,1.0051278E-2,-1.2879956E0,4.0422633E-2,5.911893E-1,-1.0309169E0,2.5160617E-1,3.8019072E-2,2.290086E-1,9.3166256E-1,-9.9959576E-1,6.1638653E-1,-9.4327533E-1,3.1887946E-1,1.7072359E-1,-2.7851377E-2,-1.0392344E0,7.6365316E-1,2.9010726E-2,1.7592168E-1,-1.3364683E0,1.0612949E-2,1.0809534E0,-9.951317E-2,-1.6201265E-1,-2.6337951E-2,1.1849959E-1,8.888834E-1,1.0978109E0,-5.1863164E-1,-1.173502E0,1.8760796E-1,1.106673E0,-8.082455E-2,-1.0775373E0,9.383469E-2,-5.197506E-1,1.508238E-1,-1.1325924E0,1.24447934E-1,-3.1650808E-2,1.8594727E-1,-1.9175987E-1,-2.2475982E-2,2.272283E-1,-4.5151368E-2,6.5304354E-2,1.3752235E0,1.0257628E0,-1.4197874E-1,1.2084898E0,-1.1648991E-1,-9.0025735E-1,5.5562958E-2,-1.3066722E0,5.8193106E-2,1.2803423E-1,-7.9116255E-2,1.9183682E-1,3.0646216E-2,-1.2100518E0,1.1887308E-1,2.8994791E-3,-1.12079166E-1,-1.2371222E0,1.0653937E-1,1.6367415E-1,-4.8432544E-1,2.2029753E-1,4.5768486E-4,1.2279093E0,-1.8149559E-1,1.2923423E0,-7.735518E-2,-1.8106247E-1,2.0425662E-2,-1.4067441E0,3.61698E-3,-1.3223923E0,6.769541E-2,-1.3216078E0,1.0518941E-1,2.2058293E-1,-1.0504694E0,-7.18367E-1,6.0443753E-1,1.3559437E0,-9.651219E-2,-7.0736116E-1,1.4225727E-1,1.3665031E0,-1.0340942E-1,-2.1198809E-1,-6.367525E-2,-1.4417185E0,2.9061465E-2,-1.3917127E0,5.5655748E-2,3.7240934E-2,-1.7837515E-1,-1.8022774E-1,4.633463E-4,-1.2409918E-1,1.3098033E-1,1.4992613E-1,-9.644292E-2,2.0502533E-1,-8.025545E-2,-1.7262872E-1,1.8352844E-2,2.0655447E-1,-1.4157209E-2,-2.1579309E-1,-1.1401851E-2,-2.0505446E-1,5.707111E-2],"categories":[],"categories_nodes":[],"categories_segments":[],"categories_sizes":[],"default_left":[0,0,0,0,0,0,0,0,0,0,0,0,0,0,0,0,0,0,0,0,0,0,0,0,0,0,0,0,0,0,0,0,0,0,0,0,0,0,0,0,0,0,0,0,0,0,0,0,0,0,0,0,0,0,0,0,0,0,0,0,0,0,0,0,0,0,0,0,0,0,0,0,0,0,0,0,0,0,0,0,0,0,0,0,0,0,0,0,0,0,0,0,0,0,0,0,0,0,0,0,0,0,0,0,0,0,0,0,0,0,0,0,0,0,0,0,0,0,0,0,0,0,0,0,0,0,0,0,0,0,0,0,0,0,0,0,0],"id":6,"left_children":[1,3,5,7,9,11,13,15,17,19,21,23,-1,25,27,29,31,33,35,37,39,-1,-1,41,-1,43,45,-1,-1,47,49,51,53,55,57,-1,-1,59,61,-1,-1,63,-1,65,-1,-1,-1,67,69,71,73,75,77,79,-1,81,-1,83,-1,85,-1,-1,-1,-1,-1,-1,-1,87,89,91,-1,93,-1,95,-1,97,-1,-1,-1,-1,-1,99,-1,-1,-1,101,-1,103,105,-1,-1,107,109,111,-1,-1,-1,113,-1,115,-1,117,-1,119,121,123,125,127,-1,129,-1,131,-1,-1,-1,133,-1,135,-1,-1,-1,-1,-1,-1,-1,-1,-1,-1,-1,-1,-1,-1,-1,-1,-1,-1,-1],"loss_changes":[3.870566E1,2.8845114E1,1.3658806E1,2.6384302E1,1.195299E1,2.9962502E0,6.822552E0,2.4671963E1,7.0402536E0,1.039884E1,1.4446487E0,3.2420616E0,0E0,7.8472886E0,9.257536E-1,2.0792019E1,1.1403795E1,7.5224037E0,2.4187388E0,9.626324E0,5.312302E-1,0E0,0E0,2.3245392E0,0E0,4.2889037E0,4.912796E-1,0E0,0E0,1.8068428E1,1.2866592E1,4.527809E0,4.029404E0,7.1535683E0,4.443532E0,0E0,0E0,8.1557045E0,2.2535045E0,0E0,0E0,1.051815E0,0E0,3.8775892E0,0E0,0E0,0E0,1.4258269E1,1.031249E1,1.0854256E1,2.4272776E0,4.423624E0,2.447201E0,7.4122906E-1,0E0,8.122536E0,0E0,5.5903214E-1,0E0,8.526394E0,0E0,0E0,0E0,0E0,0E0,0E0,0E0,1.1268938E1,2.352871E0,8.44828E0,0E0,7.213707E0,0E0,2.0339243E0,0E0,2.324543E0,0E0,0E0,0E0,0E0,0E0,5.6649933E0,0E0,0E0,0E0,7.157879E0,0E0,1.2412499E1,8.504253E0,0E0,0E0,8.053463E0,4.311949E0,7.382744E0,0E0,0E0,0E0,9.4581604E-1,0E0,4.8705406E0,0E0,4.8393517E0,0E0,1.182821E1,2.0177498E0,8.2016945E0,4.445749E0,6.6013947E0,0E0,2.169005E0,0E0,6.72908E0,0E0,0E0,0E0,3.0403862E0,0E0,5.112236E0,0E0,0E0,0E0,0E0,0E0,0E0,0E0,0E0,0E0,0E0,0E0,0E0,0E0,0E0,0E0,0E0,0E0,0E0,0E0],"parents":[2147483647,0,0,1,1,2,2,3,3,4,4,5,5,6,6,7,7,8,8,9,9,10,10,11,11,13,13,14,14,15,15,16,16,17,17,18,18,19,19,20,20,23,23,25,25,26,26,29,29,30,30,31,31,32,32,33,33,34,34,37,37,38,38,41,41,43,43,47,47,48,48,49,49,50,50,51,51,52,52,53,53,55,55,57,57,59,59,67,67,68,68,69,69,71,71,73,73,75,75,81,81,85,85,87,87,88,88,91,91,92,92,93,93,97,97,99,99,101,101,103,103,104,104,105,105,106,106,107,107,109,109,111,111,115,115,117,117],"right_children":[2,4,6,8,10,12,14,16,18,20,22,24,-1,26,28,30,32,34,36,38,40,-1,-1,42,-1,44,46,-1,-1,48,50,52,54,56,58,-1,-1,60,62,-1,-1,64,-1,66,-1,-1,-1,68,70,72,74,76,78,80,-1,82,-1,84,-1,86,-1,-1,-1,-1,-1,-1,-1,88,90,92,-1,94,-1,96,-1,98,-1,-1,-1,-1,-1,100,-1,-1,-1,102,-1,104,106,-1,-1,108,110,112,-1,-1,-1,114,-1,116,-1,118,-1,120,122,124,126,128,-1,130,-1,132,-1,-1,-1,134,-1,136,-1,-1,-1,-1,-1,-1,-1,-1,-1,-1,-1,-1,-1,-1,-1,-1,-1,-1,-1],"split_conditions":[2.2187252E-3,2.4175153E-3,2.7904992E-3,5.6749065E-3,3.319572E-3,6.642003E-3,4.0743565E-3,3.674693E-3,7.5103804E-3,1.0474164E-2,5.0538722E-3,3.6340228E-3,3.509659E-2,5.3296224E-3,8.221906E-3,2.0330232E-3,2.846492E-3,6.962108E-3,1.1489839E-2,2.9395043E-3,5.9999702E-3,1.908429E-1,1.0051278E-2,3.722373E-3,4.0422633E-2,5.2193203E-3,1.0607213E-2,2.5160617E-1,3.8019072E-2,2.072322E-3,5.839616E-3,5.3954436E-3,2.4393213E-3,9.212428E-3,4.1230274E-3,1.7072359E-1,-2.7851377E-2,8.358193E-3,2.4066158E-3,2.9010726E-2,1.7592168E-1,1.1426173E-2,1.0612949E-2,2.1578213E-3,-9.951317E-2,-1.6201265E-1,-2.6337951E-2,4.2685517E-3,8.084859E-3,7.630145E-3,6.2654666E-3,2.5031597E-3,4.470181E-3,3.5309691E-3,-8.082455E-2,7.986163E-3,9.383469E-2,7.125024E-3,1.508238E-1,8.841712E-3,1.24447934E-1,-3.1650808E-2,1.8594727E-1,-1.9175987E-1,-2.2475982E-2,2.272283E-1,-4.5151368E-2,3.299544E-3,2.7253448E-3,5.0179344E-3,-1.4197874E-1,8.985867E-3,-1.1648991E-1,9.852516E-3,5.5562958E-2,4.654352E-3,5.8193106E-2,1.2803423E-1,-7.9116255E-2,1.9183682E-1,3.0646216E-2,3.1303894E-3,1.1887308E-1,2.8994791E-3,-1.12079166E-1,4.6377648E-3,1.0653937E-1,9.529172E-3,5.464528E-3,2.2029753E-1,4.5768486E-4,1.6984208E-3,2.315416E-3,3.915996E-3,-7.735518E-2,-1.8106247E-1,2.0425662E-2,7.868014E-3,3.61698E-3,1.0758942E-2,6.769541E-2,1.01191085E-2,1.0518941E-1,2.5917743E-3,1.5186459E-3,6.381917E-3,4.510209E-3,1.3140027E-2,-9.651219E-2,2.6162087E-3,1.4225727E-1,6.3105207E-3,-1.0340942E-1,-2.1198809E-1,-6.367525E-2,2.4406132E-3,2.9061465E-2,1.2769144E-2,5.5655748E-2,3.7240934E-2,-1.7837515E-1,-1.8022774E-1,4.633463E-4,-1.2409918E-1,1.3098033E-1,1.4992613E-1,-9.644292E-2,2.0502533E-1,-8.025545E-2,-1.7262872E-1,1.8352844E-2,2.0655447E-1,-1.4157209E-2,-2.1579309E-1,-1.1401851E-2,-2.0505446E-1,5.707111E-2],"split_indices":[3443,2687,2817,2847,966,170,484,19,2048,339,561,256,0,3313,3443,4862,1586,1378,2847,318,3313,0,0,240,0,2702,3313,0,0,1348,3400,1128,2246,2708,2732,0,0,1626,2817,0,0,4204,0,4805,0,0,0,4613,2659,4032,3479,707,2065,561,0,2003,0,4805,0,1541,0,0,0,0,0,0,0,2043,1943,2912,0,1090,0,3400,0,2957,0,0,0,0,0,3114,0,0,0,1190,0,1305,3661,0,0,4490,2797,910,0,0,0,3411,0,636,0,2392,0,417,2817,1936,3400,4152,0,4215,0,1378,0,0,0,4397,0,158,0,0,0,0,0,0,0,0,0,0,0,0,0,0,0,0,0,0,0],"split_type":[0,0,0,0,0,0,0,0,0,0,0,0,0,0,0,0,0,0,0,0,0,0,0,0,0,0,0,0,0,0,0,0,0,0,0,0,0,0,0,0,0,0,0,0,0,0,0,0,0,0,0,0,0,0,0,0,0,0,0,0,0,0,0,0,0,0,0,0,0,0,0,0,0,0,0,0,0,0,0,0,0,0,0,0,0,0,0,0,0,0,0,0,0,0,0,0,0,0,0,0,0,0,0,0,0,0,0,0,0,0,0,0,0,0,0,0,0,0,0,0,0,0,0,0,0,0,0,0,0,0,0,0,0,0,0,0,0],"sum_hessian":[4.541097E2,4.0716937E2,4.6940327E1,3.6014355E2,4.7025806E1,3.473881E1,1.2201515E1,3.2291238E2,3.7231197E1,4.365432E1,3.371484E0,3.364329E1,1.0955182E0,1.0180751E1,2.0207639E0,2.9825507E2,2.4657312E1,3.379338E1,3.4378154E0,4.1210243E1,2.4440792E0,1.9868617E0,1.3846223E0,3.263064E1,1.012655E0,4.5209484E0,5.6598024E0,1.0004746E0,1.0202892E0,2.4822156E2,5.00335E1,1.986413E1,4.793181E0,2.8687527E1,5.105853E0,1.7103093E0,1.7275062E0,3.8714493E1,2.495751E0,1.2198687E0,1.2242105E0,3.1530031E1,1.1006073E0,3.4085495E0,1.1123989E0,4.5976167E0,1.0621859E0,2.1362537E2,3.4596188E1,4.51088E1,4.924702E0,1.7336199E1,2.527932E0,3.4493496E0,1.3438312E0,2.6790464E1,1.8970624E0,2.574182E0,2.531671E0,3.732011E1,1.3943815E0,1.1242689E0,1.371482E0,3.0502878E1,1.0271525E0,2.3459344E0,1.062615E0,2.0595938E2,7.6659875E0,3.2704792E1,1.8913953E0,4.3015648E1,2.0931513E0,3.4875815E0,1.4371206E0,1.615979E1,1.1764079E0,1.1766522E0,1.3512799E0,2.240602E0,1.2087476E0,2.5414385E1,1.376079E0,1.196885E0,1.3772972E0,3.569628E1,1.623827E0,1.7528926E2,3.0670122E1,6.5693727E0,1.0966148E0,2.7999395E1,4.7053976E0,4.1314568E1,1.7010791E0,2.3633964E0,1.1241851E0,1.4979138E1,1.1806524E0,2.4038992E1,1.3753937E0,3.456314E1,1.1331396E0,1.6822273E2,7.066537E0,2.5523718E1,5.1464043E0,2.6521116E1,1.4782782E0,3.5541549E0,1.1512425E0,4.0174767E1,1.1398026E0,1.2928985E1,2.0501535E0,2.2353292E1,1.6856987E0,3.3391926E1,1.1712179E0,1.6405899E2,4.1637297E0,5.58866E0,1.4778775E0,2.3590734E1,1.932983E0,3.9086382E0,1.2377658E0,2.5336744E1,1.1843728E0,1.8952276E0,1.6589274E0,3.7395065E1,2.7797008E0,2.0703325E1,1.6499687E0,3.226944E1,1.1224853E0],"tree_param":{"num_deleted":"0","num_feature":"5000","num_nodes":"137","size_leaf_vector":"1"}},{"base_weights":[6.3191233E-3,1.2048742E-1,-7.3146135E-1,1.7897186E-1,-1.2476904E0,-9.44259E-1,3.6239095E-2,2.5048283E-1,-8.7726545E-1,-1.352734E0,3.2371795E-3,-1.0370488E0,9.907067E-2,3.2337898E-1,-1.3638812E-1,2.9510596E-1,-1.338088E0,-1.2095053E0,4.121399E-1,-2.037524E-1,-5.5664643E-3,-1.1091381E0,9.675204E-2,6.494575E-1,-6.5460336E-1,3.393629E-1,-1.0316547E0,-1.5073806E0,-3.7866887E-2,-1.3817896E0,6.893301E-2,1.746934E-1,-1.0094188E-1,-1.1809326E0,1.0694487E-1,9.42028E-1,-8.245094E-2,-1.2357035E-1,-1.9564347E-2,3.7892845E-1,-1.2366409E0,-1.2576599E0,6.937159E-2,-2.252295E-1,-6.474733E-2,-1.5610054E0,8.769802E-2,-1.2705944E0,2.648964E-1,1.2199925E0,-3.3569027E-2,3.2425934E-1,1.3195018E0,-1.855392E-1,-4.8307944E-2,-1.5293399E0,4.2641047E-2,-1.699283E0,1.5300361E-2,-1.3305839E0,5.0715454E-2,-1.1490487E-1,1.6421212E-1,1.8992637E-1,4.1756112E-2,3.9470553E-1,-4.1155538E-1,1.4250166E0,-1.1131648E-2,-2.2957802E-1,-5.2387524E-2,-2.524674E-1,-5.4591745E-2,-1.3794719E0,2.7447464E-2,4.3740553E-1,-7.968232E-1,-7.3481166E-1,7.890993E-1,2.1401863E-1,1.2434858E-3,-1.469414E0,-3.1535485E-1,7.952562E-2,4.7115083E-3,-1.420107E-1,7.2143696E-2,-1.3050613E-1,1.8415225E-1,2.1264376E-1,-1.270706E-1,-2.1794608E-1,-3.484384E-2,2.9696867E-2,-1.2490119E-1],"categories":[],"categories_nodes":[],"categories_segments":[],"categories_sizes":[],"default_left":[0,0,0,0,0,0,0,0,0,0,0,0,0,0,0,0,0,0,0,0,0,0,0,0,0,0,0,0,0,0,0,0,0,0,0,0,0,0,0,0,0,0,0,0,0,0,0,0,0,0,0,0,0,0,0,0,0,0,0,0,0,0,0,0,0,0,0,0,0,0,0,0,0,0,0,0,0,0,0,0,0,0,0,0,0,0,0,0,0,0,0,0,0,0,0],"id":7,"left_children":[1,3,5,7,9,11,13,15,17,19,-1,21,-1,23,-1,25,27,29,31,-1,-1,33,-1,35,37,39,41,43,-1,45,-1,-1,-1,47,-1,49,-1,-1,-1,51,53,55,-1,-1,-1,57,-1,59,61,63,-1,65,67,-1,-1,69,-1,71,-1,73,-1,-1,-1,-1,-1,75,77,79,-1,-1,-1,-1,-1,81,-1,83,85,87,89,-1,-1,91,93,-1,-1,-1,-1,-1,-1,-1,-1,-1,-1,-1,-1],"loss_changes":[3.6591137E1,3.0321808E1,9.544706E0,2.7532728E1,2.1064339E0,7.726288E0,4.2602468E0,2.4457745E1,1.0416468E1,1.8794041E0,0E0,6.197941E0,0E0,4.041287E0,0E0,1.9785782E1,1.3012524E0,6.1523647E0,6.0975695E0,0E0,0E0,6.581711E0,0E0,3.8178344E0,2.680323E-1,2.048883E1,4.396428E0,9.752655E-2,0E0,7.1716347E0,0E0,0E0,0E0,5.6606636E0,0E0,2.8120084E0,0E0,0E0,0E0,1.5716499E1,1.8264294E-1,4.6275864E0,0E0,0E0,0E0,3.9010162E0,0E0,4.286911E0,4.142602E0,3.9799976E-1,0E0,1.5611866E1,2.6110706E0,0E0,0E0,4.738083E-1,0E0,1.3291054E0,0E0,3.082779E0,0E0,0E0,0E0,0E0,0E0,1.4213715E1,1.0877096E1,2.304493E0,0E0,0E0,0E0,0E0,0E0,3.0430603E0,0E0,1.38912735E1,3.315043E0,9.8943405E0,8.944444E0,0E0,0E0,3.1847E0,1.4453367E0,0E0,0E0,0E0,0E0,0E0,0E0,0E0,0E0,0E0,0E0,0E0,0E0],"parents":[2147483647,0,0,1,1,2,2,3,3,4,4,5,5,6,6,7,7,8,8,9,9,11,11,13,13,15,15,16,16,17,17,18,18,21,21,23,23,24,24,25,25,26,26,27,27,29,29,33,33,35,35,39,39,40,40,41,41,45,45,47,47,48,48,49,49,51,51,52,52,55,55,57,57,59,59,65,65,66,66,67,67,73,73,75,75,76,76,77,77,78,78,81,81,82,82],"right_children":[2,4,6,8,10,12,14,16,18,20,-1,22,-1,24,-1,26,28,30,32,-1,-1,34,-1,36,38,40,42,44,-1,46,-1,-1,-1,48,-1,50,-1,-1,-1,52,54,56,-1,-1,-1,58,-1,60,62,64,-1,66,68,-1,-1,70,-1,72,-1,74,-1,-1,-1,-1,-1,76,78,80,-1,-1,-1,-1,-1,82,-1,84,86,88,90,-1,-1,92,94,-1,-1,-1,-1,-1,-1,-1,-1,-1,-1,-1,-1],"split_conditions":[3.7090718E-3,5.326191E-3,3.8695405E-3,3.8654832E-3,9.934071E-3,1.0029511E-2,4.5345174E-3,6.10362E-3,4.308385E-3,3.9065625E-3,3.2371795E-3,2.8145155E-3,9.907067E-2,4.557458E-3,-1.3638812E-1,4.7951723E-3,5.9722047E-3,4.83504E-3,2.5941308E-3,-2.037524E-1,-5.5664643E-3,7.622941E-3,9.675204E-2,3.184286E-3,3.5447706E-3,1.1273889E-2,4.5202486E-3,2.072322E-3,-3.7866887E-2,2.7603856E-3,6.893301E-2,1.746934E-1,-1.0094188E-1,3.9006579E-3,1.0694487E-1,6.2830113E-3,-8.245094E-2,-1.2357035E-1,-1.9564347E-2,7.0514088E-3,1.8317983E-3,4.8105842E-3,6.937159E-2,-2.252295E-1,-6.474733E-2,7.047872E-3,8.769802E-2,1.0222218E-2,1.6006425E-3,5.755273E-3,-3.3569027E-2,3.7721968E-3,8.417215E-3,-1.855392E-1,-4.8307944E-2,4.074932E-3,4.2641047E-2,2.732774E-3,1.5300361E-2,7.3691653E-3,5.0715454E-2,-1.1490487E-1,1.6421212E-1,1.8992637E-1,4.1756112E-2,4.0928004E-3,3.5537132E-3,2.3574342E-3,-1.1131648E-2,-2.2957802E-1,-5.2387524E-2,-2.524674E-1,-5.4591745E-2,1.35148885E-2,2.7447464E-2,5.0865873E-3,6.7097163E-3,5.3399983E-3,1.8791062E-3,2.1401863E-1,1.2434858E-3,7.1436684E-3,1.3690908E-3,7.952562E-2,4.7115083E-3,-1.420107E-1,7.2143696E-2,-1.3050613E-1,1.8415225E-1,2.1264376E-1,-1.270706E-1,-2.1794608E-1,-3.484384E-2,2.9696867E-2,-1.2490119E-1],"split_indices":[4251,4490,4417,4391,1241,976,3674,1685,2817,4862,0,657,0,4567,0,2931,3814,1685,4152,0,0,2214,0,2693,4152,2204,1378,1348,0,1554,0,0,0,1167,0,1443,0,0,0,2717,2283,3099,0,0,0,4681,0,3170,3823,1183,0,3751,4474,0,0,2659,0,2853,0,2291,0,0,0,0,0,2690,3099,2361,0,0,0,0,0,3313,0,4152,2169,216,3105,0,0,3763,2065,0,0,0,0,0,0,0,0,0,0,0,0],"split_type":[0,0,0,0,0,0,0,0,0,0,0,0,0,0,0,0,0,0,0,0,0,0,0,0,0,0,0,0,0,0,0,0,0,0,0,0,0,0,0,0,0,0,0,0,0,0,0,0,0,0,0,0,0,0,0,0,0,0,0,0,0,0,0,0,0,0,0,0,0,0,0,0,0,0,0,0,0,0,0,0,0,0,0,0,0,0,0,0,0,0,0,0,0,0,0],"sum_hessian":[4.3236707E2,3.7515082E2,5.721626E1,3.6060547E2,1.4545333E1,4.4618538E1,1.2597722E1,3.3845383E2,2.2151657E1,1.3375289E1,1.1700442E0,4.259796E1,2.0205762E0,1.0339481E1,2.2582405E0,3.2999838E2,8.455459E0,1.7662535E1,4.4891214E0,1.2304909E1,1.07038E0,4.123599E1,1.3619734E0,8.006034E0,2.3334482E0,3.200661E2,9.932266E0,6.9426346E0,1.5128244E0,1.6209686E1,1.4528487E0,2.525471E0,1.9636506E0,4.00696E1,1.1663878E0,6.6696434E0,1.3363899E0,1.1220986E0,1.2113496E0,3.129686E2,7.0975122E0,8.805601E0,1.1266656E0,5.836576E0,1.1060584E0,1.5086064E1,1.1236222E0,3.784394E1,2.2256575E0,5.3734746E0,1.2961692E0,2.9704797E2,1.5920623E1,6.0132565E0,1.0842556E0,7.519063E0,1.2865381E0,1.3916603E1,1.1694613E0,3.668141E1,1.1625319E0,1.0574851E0,1.1681724E0,4.2689056E0,1.1045687E0,2.7151678E2,2.5531172E1,1.4786802E1,1.1338205E0,6.47961E0,1.0394529E0,1.2542541E1,1.3740623E0,3.5636604E1,1.0448047E0,2.6273428E2,8.782522E0,2.0421116E1,5.110055E0,1.3703925E1,1.0828779E0,3.250806E1,3.1285455E0,1.9819955E2,6.453472E1,7.728201E0,1.0543213E0,1.9125214E1,1.2959031E0,3.6464934E0,1.4635613E0,3.0079994E1,2.4280658E0,1.9643806E0,1.164165E0],"tree_param":{"num_deleted":"0","num_feature":"5000","num_nodes":"95","size_leaf_vector":"1"}},{"base_weights":[-5.3558264E-2,7.7986285E-2,-7.413045E-1,-1.6181128E-2,1.0070783E0,-8.3351105E-1,7.9138565E-1,-1.0117949E-1,7.7068275E-1,1.2783332E0,1.5599123E-1,-9.417352E-1,4.293072E-1,-1.14130184E-1,2.321794E-1,-5.2603506E-2,-1.3504688E0,4.2470217E-1,1.3403579E0,1.8823601E-1,-9.669508E-3,1.0409927E0,-1.0017159E0,-1.0423694E0,5.0452036E-1,-4.5856977E-1,2.0975716E-1,-1.0362214E-1,7.592665E-2,-1.7690061E-1,4.1998565E-1,-1.6426532E0,6.0935818E-2,7.0150185E-1,-3.327886E-1,1.449332E0,3.6885094E-2,7.858172E-3,1.7480917E-1,-2.1427573E-1,3.254489E-2,-1.1006283E0,1.4441124E-1,1.6098878E-1,-1.130396E-1,-1.3134207E-1,5.3203024E-2,-9.219615E-2,-1.036084E0,5.2958304E-1,-9.804011E-1,-2.4345921E-1,-5.549577E-2,9.1556275E-1,-1.2912068E-1,-9.141311E-1,9.017063E-2,2.1561512E-1,5.124648E-2,-1.1821407E0,3.1575996E-1,-1.479215E-1,9.5621234E-1,-1.1724204E0,1.12996876E-1,6.4708763E-1,-9.07088E-1,-2.1290645E-1,2.6390286E-2,1.1155883E0,-9.105684E-2,-2.1481843E-1,3.6865287E-2,-1.2423779E0,6.283512E-2,-6.374962E-2,1.672461E-1,-7.344459E-2,-8.7390333E-1,1.161894E0,-7.12232E-2,-1.4309481E0,-2.8420103E-1,8.153853E-1,-2.3433472E-1,-1.786088E-1,2.7256746E-2,1.2925568E0,-6.4040385E-2,-1.3028251E0,1.4663799E-2,-1.2984486E-1,1.2354141E0,-1.0969232E0,1.0630368E-1,1.3166493E0,-1.8191094E-3,-1.632353E0,-1.30253E-2,9.155032E-2,-6.6526765E-1,9.2643887E-1,-7.5228286E-1,5.4680383E-1,-1.0289574E0,1.4439671E0,-1.5668327E-2,-1.3463242E0,4.5819126E-2,6.923228E-2,-6.821693E-2,-2.3237962E-2,2.2187927E-1,1.9801937E-1,5.763486E-3,-1.7734939E-1,8.3510295E-2,2.0513248E-1,2.4090635E-2,-2.4291317E-1,-3.8773473E-2,-1.2856898E-3,-1.3156344E-1,1.4875256E-1,-4.603933E-2,-2.0574313E-2,-1.3865937E-1,-4.782377E-2,1.8251336E-1,-2.1067895E-1,3.3254724E-2,2.2070464E-1,6.918179E-2,-1.9423902E-1,2.4236528E-2],"categories":[],"categories_nodes":[],"categories_segments":[],"categories_sizes":[],"default_left":[0,0,0,0,0,0,0,0,0,0,0,0,0,0,0,0,0,0,0,0,0,0,0,0,0,0,0,0,0,0,0,0,0,0,0,0,0,0,0,0,0,0,0,0,0,0,0,0,0,0,0,0,0,0,0,0,0,0,0,0,0,0,0,0,0,0,0,0,0,0,0,0,0,0,0,0,0,0,0,0,0,0,0,0,0,0,0,0,0,0,0,0,0,0,0,0,0,0,0,0,0,0,0,0,0,0,0,0,0,0,0,0,0,0,0,0,0,0,0,0,0,0,0,0,0,0,0,0,0,0,0,0,0,0,0],"id":8,"left_children":[1,3,5,7,9,11,13,15,17,19,21,23,25,27,-1,29,31,33,35,-1,-1,37,39,41,43,45,-1,-1,-1,47,49,51,-1,53,55,57,-1,-1,-1,-1,-1,59,-1,-1,-1,-1,-1,61,63,65,67,-1,-1,69,-1,71,-1,-1,-1,73,75,77,79,81,-1,83,85,-1,-1,87,-1,-1,-1,89,-1,-1,-1,91,93,95,-1,97,99,101,103,-1,-1,105,-1,107,109,111,113,115,-1,117,-1,119,-1,-1,121,123,125,127,129,131,-1,133,-1,-1,-1,-1,-1,-1,-1,-1,-1,-1,-1,-1,-1,-1,-1,-1,-1,-1,-1,-1,-1,-1,-1,-1,-1,-1,-1],"loss_changes":[3.9193684E1,3.1865908E1,1.0488853E1,2.2250708E1,7.538372E0,9.436825E0,3.6906705E0,1.8139658E1,5.823786E0,2.347889E0,1.0509404E1,9.431278E0,6.290412E0,1.6824142E0,0E0,1.7103008E1,6.553936E0,4.771603E0,1.0020027E0,0E0,0E0,1.101079E0,3.3010468E0,8.086563E0,4.8695316E0,1.9615095E0,0E0,0E0,0E0,1.6659718E1,9.8298855E0,4.9051666E-1,0E0,6.466091E0,4.263407E0,4.6743774E-1,0E0,0E0,0E0,0E0,0E0,6.890007E0,0E0,0E0,0E0,0E0,0E0,1.2449121E1,6.113674E0,1.0194333E1,3.2893271E0,0E0,0E0,5.358735E0,0E0,3.6686783E0,0E0,0E0,0E0,5.8219376E0,3.1604254E0,1.0798201E1,3.8350906E0,4.0836086E0,0E0,8.081551E0,2.1653528E0,0E0,0E0,4.344946E0,0E0,0E0,0E0,3.965805E0,0E0,0E0,0E0,1.3691509E1,7.6079235E0,1.7889862E0,0E0,3.8626232E0,2.4571087E0,8.511486E0,6.338183E0,0E0,0E0,2.7946758E0,0E0,3.9554596E0,1.053098E0,1.1208923E1,1.5809155E0,5.580757E0,0E0,1.2139454E0,0E0,1.3142471E0,0E0,0E0,8.049725E-1,7.5862236E0,3.6205018E-1,4.0394154E0,3.3466487E0,6.3661957E-1,0E0,3.2672806E0,0E0,0E0,0E0,0E0,0E0,0E0,0E0,0E0,0E0,0E0,0E0,0E0,0E0,0E0,0E0,0E0,0E0,0E0,0E0,0E0,0E0,0E0,0E0,0E0,0E0,0E0,0E0],"parents":[2147483647,0,0,1,1,2,2,3,3,4,4,5,5,6,6,7,7,8,8,9,9,10,10,11,11,12,12,13,13,15,15,16,16,17,17,18,18,21,21,22,22,23,23,24,24,25,25,29,29,30,30,31,31,33,33,34,34,35,35,41,41,47,47,48,48,49,49,50,50,53,53,55,55,59,59,60,60,61,61,62,62,63,63,65,65,66,66,69,69,73,73,77,77,78,78,79,79,81,81,82,82,83,83,84,84,87,87,89,89,90,90,91,91,92,92,93,93,95,95,97,97,100,100,101,101,102,102,103,103,104,104,105,105,107,107],"right_children":[2,4,6,8,10,12,14,16,18,20,22,24,26,28,-1,30,32,34,36,-1,-1,38,40,42,44,46,-1,-1,-1,48,50,52,-1,54,56,58,-1,-1,-1,-1,-1,60,-1,-1,-1,-1,-1,62,64,66,68,-1,-1,70,-1,72,-1,-1,-1,74,76,78,80,82,-1,84,86,-1,-1,88,-1,-1,-1,90,-1,-1,-1,92,94,96,-1,98,100,102,104,-1,-1,106,-1,108,110,112,114,116,-1,118,-1,120,-1,-1,122,124,126,128,130,132,-1,134,-1,-1,-1,-1,-1,-1,-1,-1,-1,-1,-1,-1,-1,-1,-1,-1,-1,-1,-1,-1,-1,-1,-1,-1,-1,-1,-1],"split_conditions":[2.739691E-3,4.8569855E-3,7.5394684E-3,8.558922E-3,5.539503E-3,5.324825E-3,4.5436714E-3,8.388137E-3,6.338737E-3,5.2557946E-3,7.2837616E-3,1.7014612E-3,1.8791062E-3,3.91267E-3,2.321794E-1,3.5079534E-3,2.0116625E-2,1.0187294E-2,1.0543563E-2,1.8823601E-1,-9.669508E-3,5.7523493E-3,6.521445E-3,1.6584992E-3,1.8317983E-3,4.2966427E-3,2.0975716E-1,-1.0362214E-1,7.592665E-2,6.043561E-3,7.5156507E-3,9.981323E-3,6.0935818E-2,5.594977E-3,1.6940462E-3,2.9170145E-3,3.6885094E-2,7.858172E-3,1.7480917E-1,-2.1427573E-1,3.254489E-2,3.267078E-3,1.4441124E-1,1.6098878E-1,-1.130396E-1,-1.3134207E-1,5.3203024E-2,1.1749487E-2,1.400253E-2,7.993506E-3,4.720238E-3,-2.4345921E-1,-5.549577E-2,7.4650357E-3,-1.2912068E-1,1.3982638E-3,9.017063E-2,2.1561512E-1,5.124648E-2,6.8321773E-3,2.90646E-3,6.7110076E-3,7.982549E-3,7.615159E-3,1.12996876E-1,2.9739563E-3,6.5371883E-3,-2.1290645E-1,2.6390286E-2,7.9369815E-3,-9.105684E-2,-2.1481843E-1,3.6865287E-2,1.0040129E-2,6.283512E-2,-6.374962E-2,1.672461E-1,2.800507E-3,8.951888E-3,3.007808E-3,-7.12232E-2,2.249903E-3,8.044838E-3,8.838038E-3,3.4631689E-3,-1.786088E-1,2.7256746E-2,1.1074897E-2,-6.4040385E-2,1.4502701E-2,1.3882056E-2,6.4340974E-3,2.1799554E-3,1.5275815E-2,1.0630368E-1,1.0379247E-2,-1.8191094E-3,7.026914E-3,-1.30253E-2,9.155032E-2,7.2382716E-3,9.160644E-3,1.0884888E-2,4.2272955E-3,1.8772457E-3,2.1963248E-3,-1.5668327E-2,1.2913969E-2,4.5819126E-2,6.923228E-2,-6.821693E-2,-2.3237962E-2,2.2187927E-1,1.9801937E-1,5.763486E-3,-1.7734939E-1,8.3510295E-2,2.0513248E-1,2.4090635E-2,-2.4291317E-1,-3.8773473E-2,-1.2856898E-3,-1.3156344E-1,1.4875256E-1,-4.603933E-2,-2.0574313E-2,-1.3865937E-1,-4.782377E-2,1.8251336E-1,-2.1067895E-1,3.3254724E-2,2.2070464E-1,6.918179E-2,-1.9423902E-1,2.4236528E-2],"split_indices":[2693,1708,4175,4417,4152,3578,1443,4412,4805,2059,3313,2224,3105,2065,0,1992,4411,3313,339,0,0,4152,2065,3042,2283,52,0,0,0,4734,3036,4152,0,3674,1992,83,0,0,0,0,0,2697,0,0,0,0,0,4843,4805,1276,3313,0,0,3813,0,3411,0,0,0,2480,3554,2043,704,2732,0,3590,4152,0,0,4693,0,0,0,1510,0,0,0,2827,3479,1609,0,383,2732,4251,4204,0,0,598,0,3272,1510,3561,3438,3313,0,387,0,2912,0,0,3313,1831,4251,2065,446,2471,0,3686,0,0,0,0,0,0,0,0,0,0,0,0,0,0,0,0,0,0,0,0,0,0,0,0,0,0,0],"split_type":[0,0,0,0,0,0,0,0,0,0,0,0,0,0,0,0,0,0,0,0,0,0,0,0,0,0,0,0,0,0,0,0,0,0,0,0,0,0,0,0,0,0,0,0,0,0,0,0,0,0,0,0,0,0,0,0,0,0,0,0,0,0,0,0,0,0,0,0,0,0,0,0,0,0,0,0,0,0,0,0,0,0,0,0,0,0,0,0,0,0,0,0,0,0,0,0,0,0,0,0,0,0,0,0,0,0,0,0,0,0,0,0,0,0,0,0,0,0,0,0,0,0,0,0,0,0,0,0,0,0,0,0,0,0,0],"sum_hessian":[4.3158743E2,3.6303644E2,6.855101E1,3.3051947E2,3.2516964E1,6.50913E1,3.4597092E0,2.9908337E2,3.1436077E1,2.4277378E1,8.239586E0,6.018746E1,4.903838E0,2.1170633E0,1.3426459E0,2.8889252E2,1.0190871E1,2.0643927E1,1.07921505E1,2.3142313E1,1.1350654E0,4.7269306E0,3.5126553E0,5.6533016E1,3.6544464E0,2.9907408E0,1.9130974E0,1.0183926E0,1.0986707E0,2.292282E2,5.966432E1,8.826738E0,1.3641324E0,1.5173275E1,5.470652E0,9.486351E0,1.3057992E0,1.0442654E0,3.682665E0,2.2909105E0,1.2217447E0,5.5444763E1,1.0882528E0,2.5322368E0,1.1222095E0,1.8270984E0,1.1636425E0,2.096652E2,1.956299E1,5.5910477E1,3.7538471E0,7.8263507E0,1.000388E0,1.3791349E1,1.3819252E0,3.4698977E0,2.000754E0,8.363791E0,1.1225597E0,5.258397E1,2.860795E0,1.9989902E2,9.766187E0,1.8554493E1,1.0084968E0,5.2191364E1,3.7191136E0,2.361268E0,1.392579E0,1.2484301E1,1.307049E0,2.0740943E0,1.3958035E0,5.09408E1,1.6431668E0,1.780472E0,1.0803227E0,1.8229857E2,1.760045E1,8.745214E0,1.020973E0,1.3898209E1,4.6562843E0,4.3886627E1,8.304734E0,2.6682951E0,1.0508184E0,1.1382084E1,1.1022164E0,4.856885E1,2.3719501E0,1.756312E2,6.6673603E0,1.5774734E1,1.825716E0,7.6207533E0,1.1244608E0,1.1888477E1,2.009731E0,1.138184E0,3.5181007E0,4.136534E1,2.5212855E0,4.345169E0,3.9595652E0,1.0249057E1,1.1330276E0,4.7476048E1,1.0928018E0,1.2201903E0,1.15176E0,1.728904E2,2.7408042E0,5.6379085E0,1.0294517E0,1.4565673E1,1.2090607E0,6.497169E0,1.1235845E0,1.0790415E1,1.0980625E0,1.3425016E0,2.175599E0,3.7458263E1,3.9070802E0,1.1684219E0,1.3528636E0,2.2512858E0,2.093883E0,2.7412999E0,1.2182654E0,8.415384E0,1.8336724E0,4.631035E1,1.1657021E0],"tree_param":{"num_deleted":"0","num_feature":"5000","num_nodes":"135","size_leaf_vector":"1"}},{"base_weights":[7.672153E-3,8.37715E-2,-8.4936494E-1,1.3639092E-1,-1.1008681E0,-9.6646214E-1,1.5410464E-1,2.9119277E-2,6.584511E-1,-1.2708933E0,9.2447385E-2,-1.0691837E0,1.4473175E-1,8.769411E-2,-1.0837492E0,8.2405716E-1,-2.575894E-1,-1.4602491E0,2.1523016E-3,-1.1518569E0,1.02567725E-1,1.8076955E-1,-5.8250624E-1,-1.3044152E0,9.812655E-2,9.48672E-1,-4.5027438E-1,5.1309437E-1,-1.6494268E-1,-1.5789099E0,-2.4077952E-2,-1.2305746E0,1.090381E-2,2.3666063E-1,-8.353347E-1,-6.8604803E-1,1.1411331E-1,-1.5391773E0,5.1692232E-2,1.0562066E0,-6.009631E-1,-9.142856E-1,8.091034E-2,8.8001114E-1,-7.671826E-2,-2.3714413E-1,-3.0176077E-2,-1.2640643E0,-1.8821847E-2,1.7233212E-1,1.1788378E0,-1.0471383E0,1.1769505E-1,-8.1369317E-1,4.9339095E-1,-1.6607791E0,-1.5456295E-2,1.1290807E0,-1.2699446E-1,-1.8441421E-1,7.5290605E-2,-1.8654627E-1,1.2553632E-3,1.6089846E-1,2.0565847E-2,-1.8182927E-1,-2.3123354E-2,2.4231674E-1,-8.776403E-1,1.3146557E0,-5.6920882E-2,-1.2432172E0,8.2005195E-2,-9.0409434E-1,1.2963893E-1,1.3430005E-1,-2.9113423E-3,-2.4307762E-1,-6.852965E-2,1.2063831E0,-7.694615E-2,2.965063E-1,-7.743945E-1,-1.1194065E0,4.2212182E-1,1.51063E0,4.1733902E-2,-1.4753195E0,1.6485306E-2,-1.001701E0,1.2720867E-1,1.2959623E0,-1.6673238E-4,4.679974E-2,-1.9912814E-1,3.972262E-2,-2.0362382E-1,-1.8257146E-1,7.600209E-2,-6.6933595E-2,1.598173E-1,2.2761571E-1,4.0819354E-2,1.08730875E-1,-1.03344865E-1,-2.1963695E-1,-4.3887112E-2,-1.5658091E-1,7.2054125E-2,1.9109942E-1,-3.7963405E-2,-1.0541756E-1,8.4346026E-2],"categories":[],"categories_nodes":[],"categories_segments":[],"categories_sizes":[],"default_left":[0,0,0,0,0,0,0,0,0,0,0,0,0,0,0,0,0,0,0,0,0,0,0,0,0,0,0,0,0,0,0,0,0,0,0,0,0,0,0,0,0,0,0,0,0,0,0,0,0,0,0,0,0,0,0,0,0,0,0,0,0,0,0,0,0,0,0,0,0,0,0,0,0,0,0,0,0,0,0,0,0,0,0,0,0,0,0,0,0,0,0,0,0,0,0,0,0,0,0,0,0,0,0,0,0,0,0,0,0,0,0,0,0],"id":9,"left_children":[1,3,5,7,9,11,-1,13,15,17,-1,19,-1,21,23,25,27,29,-1,31,-1,33,35,37,-1,39,41,43,-1,45,-1,47,-1,49,51,53,-1,55,-1,57,59,61,-1,63,-1,-1,-1,65,-1,67,69,71,-1,73,75,77,-1,79,-1,-1,-1,-1,-1,-1,-1,-1,-1,81,83,85,-1,87,-1,89,-1,-1,-1,-1,-1,91,-1,93,95,97,99,101,103,105,-1,107,-1,109,111,-1,-1,-1,-1,-1,-1,-1,-1,-1,-1,-1,-1,-1,-1,-1,-1,-1,-1,-1,-1],"loss_changes":[2.9142565E1,2.5726402E1,9.385275E0,2.2031315E1,6.097559E0,8.278164E0,0E0,2.1454847E1,1.0386681E1,4.0061417E0,0E0,5.8632584E0,0E0,1.9581024E1,7.396158E0,9.484844E0,8.430256E0,1.9094772E0,0E0,3.2522278E0,0E0,1.5809925E1,6.1028957E0,6.461014E0,0E0,9.3465E0,3.275982E0,3.0909762E0,0E0,1.6636162E0,0E0,9.5718E-1,0E0,1.5637114E1,6.04665E0,5.8528137E0,0E0,2.135439E0,0E0,8.070511E0,3.9953573E0,1.6935658E0,0E0,8.897662E-1,0E0,0E0,0E0,9.1757584E-1,0E0,1.8275982E1,4.0944214E0,5.007721E0,0E0,6.035097E0,1.0161757E0,2.313118E-1,0E0,6.8830795E0,0E0,0E0,0E0,0E0,0E0,0E0,0E0,0E0,0E0,1.2969952E1,5.3675165E0,3.7946568E0,0E0,4.0443897E0,0E0,6.558691E0,0E0,0E0,0E0,0E0,0E0,4.9865875E0,0E0,1.4778109E1,9.032072E0,4.823988E0,2.5983152E0,1.403902E0,2.3453052E0,6.536083E-1,0E0,6.022091E0,0E0,5.0163116E0,2.3538284E0,0E0,0E0,0E0,0E0,0E0,0E0,0E0,0E0,0E0,0E0,0E0,0E0,0E0,0E0,0E0,0E0,0E0,0E0,0E0,0E0],"parents":[2147483647,0,0,1,1,2,2,3,3,4,4,5,5,7,7,8,8,9,9,11,11,13,13,14,14,15,15,16,16,17,17,19,19,21,21,22,22,23,23,25,25,26,26,27,27,29,29,31,31,33,33,34,34,35,35,37,37,39,39,40,40,41,41,43,43,47,47,49,49,50,50,51,51,53,53,54,54,55,55,57,57,67,67,68,68,69,69,71,71,73,73,79,79,81,81,82,82,83,83,84,84,85,85,86,86,87,87,89,89,91,91,92,92],"right_children":[2,4,6,8,10,12,-1,14,16,18,-1,20,-1,22,24,26,28,30,-1,32,-1,34,36,38,-1,40,42,44,-1,46,-1,48,-1,50,52,54,-1,56,-1,58,60,62,-1,64,-1,-1,-1,66,-1,68,70,72,-1,74,76,78,-1,80,-1,-1,-1,-1,-1,-1,-1,-1,-1,82,84,86,-1,88,-1,90,-1,-1,-1,-1,-1,92,-1,94,96,98,100,102,104,106,-1,108,-1,110,112,-1,-1,-1,-1,-1,-1,-1,-1,-1,-1,-1,-1,-1,-1,-1,-1,-1,-1,-1,-1],"split_conditions":[4.3920977E-3,5.2952208E-3,6.844846E-3,5.3815152E-3,5.835452E-3,2.2415216E-3,1.5410464E-1,1.1461004E-2,8.084838E-3,2.4510801E-3,9.2447385E-2,9.200782E-3,1.4473175E-1,5.1095416E-3,1.2131054E-2,2.1057944E-3,1.3982638E-3,6.548753E-3,2.1523016E-3,3.0415535E-3,1.02567725E-1,8.741129E-3,2.8173479E-3,2.0657873E-3,9.812655E-2,4.9230163E-3,3.129823E-3,8.2565565E-3,-1.6494268E-1,7.2474084E-3,-2.4077952E-2,6.915764E-3,1.090381E-2,2.820687E-3,9.648609E-3,8.118866E-3,1.1411331E-1,8.450279E-3,5.1692232E-2,3.3919131E-3,2.6533771E-3,4.6969373E-3,8.091034E-2,1.6006425E-3,-7.671826E-2,-2.3714413E-1,-3.0176077E-2,6.7701093E-3,-1.8821847E-2,2.4621116E-3,2.6365507E-3,9.658879E-3,1.1769505E-1,1.057541E-2,9.215983E-3,6.948445E-3,-1.5456295E-2,4.1659544E-3,-1.2699446E-1,-1.8441421E-1,7.5290605E-2,-1.8654627E-1,1.2553632E-3,1.6089846E-1,2.0565847E-2,-1.8182927E-1,-2.3123354E-2,3.1274497E-3,5.4438147E-3,7.450488E-3,-5.6920882E-2,8.30672E-3,8.2005195E-2,3.40973E-3,1.2963893E-1,1.3430005E-1,-2.9113423E-3,-2.4307762E-1,-6.852965E-2,1.1123339E-2,-7.694615E-2,3.1311954E-3,1.6791952E-3,3.1673168E-3,1.7987887E-3,4.007609E-3,1.4060165E-3,2.6171799E-3,1.6485306E-2,4.6416414E-3,1.2720867E-1,8.73586E-3,6.735085E-3,4.679974E-2,-1.9912814E-1,3.972262E-2,-2.0362382E-1,-1.8257146E-1,7.600209E-2,-6.6933595E-2,1.598173E-1,2.2761571E-1,4.0819354E-2,1.08730875E-1,-1.03344865E-1,-2.1963695E-1,-4.3887112E-2,-1.5658091E-1,7.2054125E-2,1.9109942E-1,-3.7963405E-2,-1.0541756E-1,8.4346026E-2],"split_indices":[3443,3550,50,1992,2003,1708,0,2896,3400,4260,0,568,0,2660,1348,4734,3411,2043,0,3685,0,2687,841,3763,0,3243,1148,4425,0,383,0,3521,0,2717,4032,4417,0,3823,0,2672,1443,2732,0,3823,0,0,0,4650,0,19,3939,2732,0,670,4417,2043,0,4263,0,0,0,0,0,0,0,0,0,4639,484,3488,0,4805,0,1582,0,0,0,0,0,1117,0,2780,4152,1728,249,3814,4204,4376,0,3410,0,1544,3313,0,0,0,0,0,0,0,0,0,0,0,0,0,0,0,0,0,0,0,0],"split_type":[0,0,0,0,0,0,0,0,0,0,0,0,0,0,0,0,0,0,0,0,0,0,0,0,0,0,0,0,0,0,0,0,0,0,0,0,0,0,0,0,0,0,0,0,0,0,0,0,0,0,0,0,0,0,0,0,0,0,0,0,0,0,0,0,0,0,0,0,0,0,0,0,0,0,0,0,0,0,0,0,0,0,0,0,0,0,0,0,0,0,0,0,0,0,0,0,0,0,0,0,0,0,0,0,0,0,0,0,0,0,0,0,0],"sum_hessian":[4.4474408E2,4.093029E2,3.5441193E1,3.9274286E2,1.656002E1,3.390946E1,1.5317335E0,3.266744E2,6.6068474E1,1.5355967E1,1.2040546E0,3.269587E1,1.2135894E0,3.1121506E2,1.5459325E1,5.6038067E1,1.0030409E1,1.3267545E1,2.0884218E0,3.1606382E1,1.0894858E0,2.7390607E2,3.7308994E1,1.3997657E1,1.4616679E0,5.1279118E1,4.7589493E0,5.700613E0,4.3297963E0,1.194197E1,1.3255749E0,2.9704285E1,1.9020972E0,2.6035242E2,1.355366E1,3.5209602E1,2.0993924E0,1.2346202E1,1.6514552E0,4.8249344E1,3.0297751E0,3.355476E0,1.4034733E0,4.362671E0,1.337942E0,1.0789619E1,1.1523502E0,2.8674988E1,1.029298E0,2.448199E2,1.5532521E1,1.2366131E1,1.1875299E0,3.2050976E1,3.158625E0,1.1228199E1,1.118002E0,4.6932224E1,1.3171191E0,1.7636735E0,1.2661017E0,2.0043614E0,1.3511146E0,2.7755706E0,1.5871001E0,2.762051E1,1.0544775E0,2.3024258E2,1.4577316E1,1.4464198E1,1.0683234E0,1.1253447E1,1.1126841E0,3.0924334E1,1.1266433E0,1.2029834E0,1.9556415E0,1.0095193E1,1.1330069E0,4.5135147E1,1.7970759E0,2.192644E2,1.0978175E1,1.2408075E1,2.169241E0,1.2372613E1,2.0915852E0,9.542098E0,1.7113484E0,2.9768831E1,1.155502E0,4.1946743E1,3.188406E0,2.1533716E2,3.9272459E0,4.5231915E0,6.4549837E0,1.1361341E1,1.0467339E0,1.1125562E0,1.0566846E0,1.0999534E1,1.3730793E0,1.0790102E0,1.0125748E0,8.507067E0,1.0350311E0,2.7884634E1,1.8841971E0,4.0300453E1,1.6462874E0,1.3066554E0,1.8817507E0],"tree_param":{"num_deleted":"0","num_feature":"5000","num_nodes":"113","size_leaf_vector":"1"}}]},"name":"gbtree"},"learner_model_param":{"base_score":"4.99025E-1","boost_from_average":"1","num_class":"0","num_feature":"5000","num_target":"1"},"objective":{"name":"binary:logistic","reg_loss_param":{"scale_pos_weight":"1"}}},"version":[2,0,2]}